{"learner":{"attributes":{"scikit_learn":"{\"_estimator_type\": \"regressor\"}"},"feature_names":[],"feature_types":[],"gradient_booster":{"model":{"gbtree_model_param":{"num_parallel_tree":"1","num_trees":"100"},"iteration_indptr":[0,1,2,3,4,5,6,7,8,9,10,11,12,13,14,15,16,17,18,19,20,21,22,23,24,25,26,27,28,29,30,31,32,33,34,35,36,37,38,39,40,41,42,43,44,45,46,47,48,49,50,51,52,53,54,55,56,57,58,59,60,61,62,63,64,65,66,67,68,69,70,71,72,73,74,75,76,77,78,79,80,81,82,83,84,85,86,87,88,89,90,91,92,93,94,95,96,97,98,99,100],"tree_info":[0,0,0,0,0,0,0,0,0,0,0,0,0,0,0,0,0,0,0,0,0,0,0,0,0,0,0,0,0,0,0,0,0,0,0,0,0,0,0,0,0,0,0,0,0,0,0,0,0,0,0,0,0,0,0,0,0,0,0,0,0,0,0,0,0,0,0,0,0,0,0,0,0,0,0,0,0,0,0,0,0,0,0,0,0,0,0,0,0,0,0,0,0,0,0,0,0,0,0,0],"trees":[{"base_weights":[-1.4655173E-1,-1.8484712E6,4.313099E6,-2.0634625E6,3.677033E5,3.675533E5,1.3637826E6,-6.615939E5,-2.834201E5],"categories":[],"categories_nodes":[],"categories_segments":[],"categories_sizes":[],"default_left":[0,0,0,0,0,0,0,0,0],"id":0,"left_children":[1,3,5,7,-1,-1,-1,-1,-1],"loss_changes":[2.3917918E14,1.640836E13,9.0140626E11,1.0904016E12,0E0,0E0,0E0,0E0,0E0],"parents":[2147483647,0,0,1,1,2,2,3,3],"right_children":[2,4,6,8,-1,-1,-1,-1,-1],"split_conditions":[3.0717024E-1,1.8938297E0,7.368545E-1,-4.0133134E-1,3.677033E5,3.675533E5,1.3637826E6,-6.615939E5,-2.834201E5],"split_indices":[3,0,3,3,0,0,0,0,0],"split_type":[0,0,0,0,0,0,0,0,0],"sum_hessian":[2.8E1,2E1,8E0,1.9E1,1E0,1E0,7E0,1.6E1,3E0],"tree_param":{"num_deleted":"0","num_feature":"4","num_nodes":"9","size_leaf_vector":"1"}},{"base_weights":[3.9793906E4,-1.3214208E6,9.6346206E5,-1.4916744E6,3.125478E5,-4.8593934E5,-2.3500352E5],"categories":[],"categories_nodes":[],"categories_segments":[],"categories_sizes":[],"default_left":[0,0,0,0,0,0,0],"id":1,"left_children":[1,3,-1,5,-1,-1,-1],"loss_changes":[1.2944919E14,1.0003444E13,0E0,5.4620743E11,0E0,0E0,0E0],"parents":[2147483647,0,0,1,1,3,3],"right_children":[2,4,-1,6,-1,-1,-1],"split_conditions":[3.0717024E-1,1.8938297E0,9.6346206E5,-4.6984208E-1,3.125478E5,-4.8593934E5,-2.3500352E5],"split_indices":[3,0,0,3,0,0,0],"split_type":[0,0,0,0,0,0,0],"sum_hessian":[2.8E1,2E1,8E0,1.9E1,1E0,1.5E1,4E0],"tree_param":{"num_deleted":"0","num_feature":"4","num_nodes":"7","size_leaf_vector":"1"}},{"base_weights":[4.6996004E4,-9.444419E5,2.3551292E6,-1.0802191E6,2.6566566E5,1.67901E5,2.509603E6,-1.1878682E6,-1.559095E5,3.0912712E5,8.492777E5,-3.674934E5,-9.468319E4],"categories":[],"categories_nodes":[],"categories_segments":[],"categories_sizes":[],"default_left":[0,0,0,0,0,0,0,0,0,0,0,0,0],"id":2,"left_children":[1,3,5,7,-1,-1,9,11,-1,-1,-1,-1,-1],"loss_changes":[6.8587033E13,6.1744957E12,1.09161375E12,5.89457E11,0E0,0E0,8.8529175E11,1.312943E11,0E0,0E0,0E0,0E0,0E0],"parents":[2147483647,0,0,1,1,2,2,3,3,6,6,7,7],"right_children":[2,4,6,8,-1,-1,10,12,-1,-1,-1,-1,-1],"split_conditions":[3.0717024E-1,1.8938297E0,7.368545E-1,4.848936E-1,2.6566566E5,1.67901E5,6.129787E-1,7.5956054E-2,-1.559095E5,3.0912712E5,8.492777E5,-3.674934E5,-9.468319E4],"split_indices":[3,0,3,0,0,0,0,3,0,0,0,0,0],"split_type":[0,0,0,0,0,0,0,0,0,0,0,0,0],"sum_hessian":[2.8E1,2E1,8E0,1.9E1,1E0,1E0,7E0,1.5E1,4E0,2E0,5E0,1.4E1,1E0],"tree_param":{"num_deleted":"0","num_feature":"4","num_nodes":"13","size_leaf_vector":"1"}},{"base_weights":[6.647946E4,-8.00243E5,1.557502E6,-2.6459528E5,-1.1849122E5,4.8008488E5,1.9015228E6,-8.04807E4,2.4568777E5,7.5161244E5,3.11441E5],"categories":[],"categories_nodes":[],"categories_segments":[],"categories_sizes":[],"default_left":[0,0,0,0,0,0,0,0,0,0,0],"id":3,"left_children":[1,3,5,-1,-1,7,9,-1,-1,-1,-1],"loss_changes":[3.872316E13,2.8106346E11,3.1643025E12,0E0,0E0,1.2340931E12,1.5699385E12,0E0,0E0,0E0,0E0],"parents":[2147483647,0,0,1,1,2,2,5,5,6,6],"right_children":[2,4,6,-1,-1,8,10,-1,-1,-1,-1],"split_conditions":[7.5956054E-2,4.848936E-1,7.368545E-1,-2.6459528E5,-1.1849122E5,-2.7446806E-2,1.0741723E0,-8.04807E4,2.4568777E5,7.5161244E5,3.11441E5],"split_indices":[3,0,3,0,0,0,2,0,0,0,0],"split_type":[0,0,0,0,0,0,0,0,0,0,0],"sum_hessian":[2.8E1,1.8E1,1E1,1.4E1,4E0,3E0,7E0,1E0,2E0,3E0,4E0],"tree_param":{"num_deleted":"0","num_feature":"4","num_nodes":"11","size_leaf_vector":"1"}},{"base_weights":[7.567953E4,-5.8033256E5,1.2019114E6,-1.8497273E5,-5.445313E4,5.5811506E5,1.6453891E6,-6.840859E4,7.609495E5,1.9655019E5,5.930125E5,1.0349846E5,2.769763E5],"categories":[],"categories_nodes":[],"categories_segments":[],"categories_sizes":[],"default_left":[0,0,0,0,0,0,0,0,0,0,0,0,0],"id":4,"left_children":[1,3,5,-1,-1,7,9,-1,11,-1,-1,-1,-1],"loss_changes":[2.2123339E13,1.627217E11,2.2222849E12,0E0,0E0,1.1302602E12,6.7340285E11,0E0,1.9039257E10,0E0,0E0,0E0,0E0],"parents":[2147483647,0,0,1,1,2,2,5,5,6,6,8,8],"right_children":[2,4,6,-1,-1,8,10,-1,12,-1,-1,-1,-1],"split_conditions":[7.5956054E-2,7.410638E-1,7.410638E-1,-1.8497273E5,-5.445313E4,3.0717024E-1,7.368545E-1,-6.840859E4,1.0974523E0,1.9655019E5,5.930125E5,1.0349846E5,2.769763E5],"split_indices":[3,0,0,0,0,3,3,0,3,0,0,0,0],"split_type":[0,0,0,0,0,0,0,0,0,0,0,0,0],"sum_hessian":[2.8E1,1.8E1,1E1,1.6E1,2E0,5E0,5E0,1E0,4E0,2E0,3E0,2E0,2E0],"tree_param":{"num_deleted":"0","num_feature":"4","num_nodes":"13","size_leaf_vector":"1"}},{"base_weights":[8.270681E4,-4.1883412E5,9.41486E5,-1.5181367E5,-7.971158E4,1.3625722E6,5.0621212E5,7.638016E4,4.7277453E5,3.0070788E5,2.0399455E5,-5.8147297E4,1.4183911E5],"categories":[],"categories_nodes":[],"categories_segments":[],"categories_sizes":[],"default_left":[0,0,0,0,0,0,0,0,0,0,0,0,0],"id":5,"left_children":[1,3,5,-1,-1,7,9,-1,-1,11,-1,-1,-1],"loss_changes":[1.2885002E13,1.1927814E11,1.3264151E12,0E0,0E0,7.8066064E11,4.5497057E10,0E0,0E0,5.171576E11,0E0,0E0,0E0],"parents":[2147483647,0,0,1,1,2,2,5,5,6,6,9,9],"right_children":[2,4,6,-1,-1,8,10,-1,-1,12,-1,-1,-1],"split_conditions":[7.5956054E-2,-5.350109E-1,1.0741723E0,-1.5181367E5,-7.971158E4,7.368545E-1,1.0974523E0,7.638016E4,4.7277453E5,-2.7446806E-2,2.0399455E5,-5.8147297E4,1.4183911E5],"split_indices":[3,3,2,0,0,3,3,0,0,0,0,0,0],"split_type":[0,0,0,0,0,0,0,0,0,0,0,0,0],"sum_hessian":[2.8E1,1.8E1,1E1,1E1,8E0,4E0,6E0,1E0,3E0,4E0,2E0,1E0,3E0],"tree_param":{"num_deleted":"0","num_feature":"4","num_nodes":"13","size_leaf_vector":"1"}},{"base_weights":[7.876775E4,-3.053694E5,7.351167E5,-1.0197657E5,-1.406381E5,2.923082E5,1.0554058E6,-4.654011E4,-1.2398363E4,-4.9425207E4,4.166701E5,1.3541825E5,1.244563E6,5.4430953E4,1.5390411E5,1.1480776E5,4.2128672E5],"categories":[],"categories_nodes":[],"categories_segments":[],"categories_sizes":[],"default_left":[0,0,0,0,0,0,0,0,0,0,0,0,0,0,0,0,0],"id":6,"left_children":[1,3,5,-1,7,9,11,-1,-1,-1,13,-1,15,-1,-1,-1,-1],"loss_changes":[7.536195E12,6.033965E10,1.2515903E12,0E0,7.864566E8,4.09691E11,1.23730395E11,0E0,0E0,0E0,2.0236796E10,0E0,1.3241418E10,0E0,0E0,0E0,0E0],"parents":[2147483647,0,0,1,1,2,2,4,4,5,5,6,6,10,10,12,12],"right_children":[2,4,6,-1,8,10,12,-1,-1,-1,14,-1,16,-1,-1,-1,-1],"split_conditions":[7.5956054E-2,4.848936E-1,7.410638E-1,-1.0197657E5,1.2534041E0,3.0717024E-1,7.368545E-1,-4.654011E4,-1.2398363E4,-4.9425207E4,1.0974523E0,1.3541825E5,1.1253191E0,5.4430953E4,1.5390411E5,1.1480776E5,4.2128672E5],"split_indices":[3,0,0,0,0,3,3,0,0,0,3,0,0,0,0,0,0],"split_type":[0,0,0,0,0,0,0,0,0,0,0,0,0,0,0,0,0],"sum_hessian":[2.8E1,1.8E1,1E1,1.4E1,4E0,5E0,5E0,3E0,1E0,1E0,4E0,2E0,3E0,2E0,2E0,1E0,2E0],"tree_param":{"num_deleted":"0","num_feature":"4","num_nodes":"17","size_leaf_vector":"1"}},{"base_weights":[7.822391E4,-2.222278E5,5.900747E5,-8.259815E4,-1.3263661E5,2.3110073E5,8.507028E5,-4.2130203E4,-1.0538606E4,-4.201142E4,3.333361E5,1.0833461E5,3.0156534E5,4.3544754E4,1.23123305E5],"categories":[],"categories_nodes":[],"categories_segments":[],"categories_sizes":[],"default_left":[0,0,0,0,0,0,0,0,0,0,0,0,0,0,0],"id":7,"left_children":[1,3,5,-1,7,9,11,-1,-1,-1,13,-1,-1,-1,-1],"loss_changes":[4.5909373E12,5.386902E10,8.3254785E11,0E0,1.909506E9,2.7434084E11,9.089188E10,0E0,0E0,0E0,1.2951618E10,0E0,0E0,0E0,0E0],"parents":[2147483647,0,0,1,1,2,2,4,4,5,5,6,6,10,10],"right_children":[2,4,6,-1,8,10,12,-1,-1,-1,14,-1,-1,-1,-1],"split_conditions":[7.5956054E-2,-5.350109E-1,7.410638E-1,-8.259815E4,1.2534041E0,3.0717024E-1,7.368545E-1,-4.2130203E4,-1.0538606E4,-4.201142E4,1.0974523E0,1.0833461E5,3.0156534E5,4.3544754E4,1.23123305E5],"split_indices":[3,3,0,0,0,3,3,0,0,0,3,0,0,0,0],"split_type":[0,0,0,0,0,0,0,0,0,0,0,0,0,0,0],"sum_hessian":[2.8E1,1.8E1,1E1,1E1,8E0,5E0,5E0,7E0,1E0,1E0,4E0,2E0,3E0,2E0,2E0],"tree_param":{"num_deleted":"0","num_feature":"4","num_nodes":"15","size_leaf_vector":"1"}},{"base_weights":[6.85253E4,-1.6267877E5,4.6164822E5,-6.007138E4,-9.869772E4,2.0632717E5,7.26768E5,-3.2923684E4,-1.2006025E4,-3.5709715E4,2.803925E5,8.66677E4,2.767163E5,3.483575E4,1.0004982E5],"categories":[],"categories_nodes":[],"categories_segments":[],"categories_sizes":[],"default_left":[0,0,0,0,0,0,0,0,0,0,0,0,0,0,0],"id":8,"left_children":[1,3,5,-1,7,9,11,-1,-1,-1,13,-1,-1,-1,-1],"loss_changes":[2.7109572E12,2.5895436E10,5.9464535E11,0E0,1.4423409E9,2.0206082E11,1.6181468E11,0E0,0E0,0E0,1.3618577E10,0E0,0E0,0E0,0E0],"parents":[2147483647,0,0,1,1,2,2,4,4,5,5,6,6,10,10],"right_children":[2,4,6,-1,8,10,12,-1,-1,-1,14,-1,-1,-1,-1],"split_conditions":[7.5956054E-2,-5.350109E-1,1.1253191E0,-6.007138E4,-4.0133134E-1,3.0717024E-1,7.368545E-1,-3.2923684E4,-1.2006025E4,-3.5709715E4,1.0974523E0,8.66677E4,2.767163E5,3.483575E4,1.0004982E5],"split_indices":[3,3,0,0,3,3,3,0,0,0,3,0,0,0,0],"split_type":[0,0,0,0,0,0,0,0,0,0,0,0,0,0,0],"sum_hessian":[2.8E1,1.8E1,1E1,1E1,8E0,6E0,4E0,6E0,2E0,1E0,5E0,2E0,2E0,2E0,3E0],"tree_param":{"num_deleted":"0","num_feature":"4","num_nodes":"15","size_leaf_vector":"1"}},{"base_weights":[6.02973E4,-1.19401516E5,3.652046E5,-4.573593E4,-7.44098E4,1.5859692E5,5.814144E5,-2.4301863E4,-9.604825E3,-3.0353252E4,2.1875558E5,2.31114E5,2.2137302E5,2.7868602E4,7.753856E4,1.536015E4,8.864116E4],"categories":[],"categories_nodes":[],"categories_segments":[],"categories_sizes":[],"default_left":[0,0,0,0,0,0,0,0,0,0,0,0,0,0,0,0,0],"id":9,"left_children":[1,3,5,-1,7,9,11,-1,-1,-1,13,15,-1,-1,-1,-1,-1],"loss_changes":[1.6325589E12,1.6909894E10,3.99166E11,0E0,2.029609E8,1.315269E11,1.03561036E11,0E0,0E0,0E0,5.9747533E9,1.9607568E10,0E0,0E0,0E0,0E0,0E0],"parents":[2147483647,0,0,1,1,2,2,4,4,5,5,6,6,10,10,11,11],"right_children":[2,4,6,-1,8,10,12,-1,-1,-1,14,16,-1,-1,-1,-1,-1],"split_conditions":[7.5956054E-2,-7.959574E-1,1.1253191E0,-4.573593E4,-4.0133134E-1,3.0717024E-1,7.368545E-1,-2.4301863E4,-9.604825E3,-3.0353252E4,1.0974523E0,1.2534041E0,2.2137302E5,2.7868602E4,7.753856E4,1.536015E4,8.864116E4],"split_indices":[3,0,0,0,3,3,3,0,0,0,3,0,0,0,0,0,0],"split_type":[0,0,0,0,0,0,0,0,0,0,0,0,0,0,0,0,0],"sum_hessian":[2.8E1,1.8E1,1E1,9E0,9E0,6E0,4E0,7E0,2E0,1E0,5E0,2E0,2E0,2E0,3E0,1E0,1E0],"tree_param":{"num_deleted":"0","num_feature":"4","num_nodes":"17","size_leaf_vector":"1"}},{"base_weights":[5.326971E4,-8.7772766E4,2.9204584E5,-3.3387223E4,-1.6643256E4,1.6385692E5,1.737792E5,2.759765E4,8.0203445E4,-2.5800264E4,2.324925E4],"categories":[],"categories_nodes":[],"categories_segments":[],"categories_sizes":[],"default_left":[0,0,0,0,0,0,0,0,0,0,0],"id":10,"left_children":[1,3,5,-1,-1,7,-1,9,-1,-1,-1],"loss_changes":[1.00228334E12,8.256733E9,3.1008365E11,0E0,0E0,1.1953257E11,0E0,3.5007603E10,0E0,0E0,0E0],"parents":[2147483647,0,0,1,1,2,2,5,5,7,7],"right_children":[2,4,6,-1,-1,8,-1,10,-1,-1,-1],"split_conditions":[7.5956054E-2,-7.959574E-1,1.2534041E0,-3.3387223E4,-1.6643256E4,1.0974523E0,1.737792E5,-2.7446806E-2,8.0203445E4,-2.5800264E4,2.324925E4],"split_indices":[3,0,0,0,0,3,0,0,0,0,0],"split_type":[0,0,0,0,0,0,0,0,0,0,0],"sum_hessian":[2.8E1,1.8E1,1E1,9E0,9E0,8E0,2E0,4E0,4E0,1E0,3E0],"tree_param":{"num_deleted":"0","num_feature":"4","num_nodes":"11","size_leaf_vector":"1"}},{"base_weights":[4.4233676E4,-4.414986E4,2.817592E5,-6.189609E4,4.9278152E4,1.2284525E5,1.517002E5,-2.1852305E4,2.8301094E3,2.0075213E4,4.69402E4,-5.2471567E3,9.568801E3],"categories":[],"categories_nodes":[],"categories_segments":[],"categories_sizes":[],"default_left":[0,0,0,0,0,0,0,0,0,0,0,0,0],"id":11,"left_children":[1,3,5,7,-1,9,-1,-1,11,-1,-1,-1,-1],"loss_changes":[6.212466E11,9.153405E10,2.2253817E11,1.5083053E10,0E0,8.1208934E8,0E0,0E0,2.9204265E9,0E0,0E0,0E0,0E0],"parents":[2147483647,0,0,1,1,2,2,3,3,5,5,8,8],"right_children":[2,4,6,8,-1,10,-1,-1,12,-1,-1,-1,-1],"split_conditions":[7.368545E-1,1.8938297E0,1.1253191E0,7.410638E-1,4.9278152E4,1.1694033E0,1.517002E5,-2.1852305E4,-3.563664E-1,2.0075213E4,4.69402E4,-5.2471567E3,9.568801E3],"split_indices":[3,0,0,0,0,3,0,0,3,0,0,0,0],"split_type":[0,0,0,0,0,0,0,0,0,0,0,0,0],"sum_hessian":[2.8E1,2.1E1,7E0,2E1,1E0,5E0,2E0,1.7E1,3E0,3E0,2E0,2E0,1E0],"tree_param":{"num_deleted":"0","num_feature":"4","num_nodes":"13","size_leaf_vector":"1"}},{"base_weights":[3.960028E4,-1.5128849E3,1.189256E5,-4.908132E4,1.1759731E5,-1.779513E4,-2.6313006E4,1.5700051E4,1.6977775E5,-9.702571E3,-5.4842085E3,5.8840105E4,1.3606501E4,-3.5268753E1,-2.432625E3],"categories":[],"categories_nodes":[],"categories_segments":[],"categories_sizes":[],"default_left":[0,0,0,0,0,0,0,0,0,0,0,0,0,0,0],"id":12,"left_children":[1,3,-1,5,7,-1,9,-1,11,-1,13,-1,-1,-1,-1],"loss_changes":[4.2602778E11,1.5875074E11,0E0,3.1002214E9,1.8358886E10,0E0,8.2722765E8,0E0,4.2214687E9,0E0,4.130167E7,0E0,0E0,0E0,0E0],"parents":[2147483647,0,0,1,1,3,3,4,4,6,6,8,8,10,10],"right_children":[2,4,-1,6,8,-1,10,-1,12,-1,14,-1,-1,-1,-1],"split_conditions":[1.8938297E0,3.0717024E-1,1.189256E5,-2.7446806E-2,1.1694033E0,-1.779513E4,-4.0133134E-1,1.5700051E4,1.0959707E0,-9.702571E3,4.848936E-1,5.8840105E4,1.3606501E4,-3.5268753E1,-2.432625E3],"split_indices":[0,3,0,0,3,0,3,0,1,0,0,0,0,0,0],"split_type":[0,0,0,0,0,0,0,0,0,0,0,0,0,0,0],"sum_hessian":[2.8E1,2.6E1,2E0,1.9E1,7E0,1.2E1,7E0,4E0,3E0,5E0,2E0,2E0,1E0,1E0,1E0],"tree_param":{"num_deleted":"0","num_feature":"4","num_nodes":"15","size_leaf_vector":"1"}},{"base_weights":[3.3827324E4,6.782335E3,1.18663055E5,-2.0900592E4,1.11769836E5,-2.913778E4,2.4047625E4,1.227945E4,1.3695612E5,-3.5855207E4,7.6073003E3,4.70721E4,1.1565525E4,-1.460757E4,-2.0925924E4,-3.7089312E3,-1.5983119E4],"categories":[],"categories_nodes":[],"categories_segments":[],"categories_sizes":[],"default_left":[0,0,0,0,0,0,0,0,0,0,0,0,0,0,0,0,0],"id":13,"left_children":[1,3,-1,5,7,9,-1,-1,11,13,-1,-1,-1,-1,15,-1,-1],"loss_changes":[2.81013E11,8.371417E10,0E0,2.1481875E10,5.0991104E9,8.962726E9,0E0,0E0,1.8039767E9,2.8139295E9,0E0,0E0,0E0,0E0,2.3885169E9,0E0,0E0],"parents":[2147483647,0,0,1,1,3,3,4,4,5,5,8,8,9,9,14,14],"right_children":[2,4,-1,6,8,10,-1,-1,12,14,-1,-1,-1,-1,16,-1,-1],"split_conditions":[2.1499999E0,9.513385E-1,1.18663055E5,1.8938297E0,1.1694033E0,3.0717024E-1,2.4047625E4,1.227945E4,1.0959707E0,-5.951667E-1,7.6073003E3,4.70721E4,1.1565525E4,-1.460757E4,7.5956054E-2,-3.7089312E3,-1.5983119E4],"split_indices":[0,3,0,0,3,3,0,0,1,3,0,0,0,0,3,0,0],"split_type":[0,0,0,0,0,0,0,0,0,0,0,0,0,0,0,0,0],"sum_hessian":[2.8E1,2.7E1,1E0,2.2E1,5E0,2.1E1,1E0,2E0,3E0,1.9E1,2E0,2E0,1E0,9E0,1E1,9E0,1E0],"tree_param":{"num_deleted":"0","num_feature":"4","num_nodes":"17","size_leaf_vector":"1"}},{"base_weights":[3.0125172E4,7.1859287E3,1.008636E5,-1.4745413E4,9.0058414E4,-2.160975E4,2.04405E4,9.82355E3,1.1052875E5,-2.6813625E4,6.0858003E3,3.76577E4,9.8307E3,-1.1390846E4,-1.7885895E4,-3.5486409E3,-1.358565E4],"categories":[],"categories_nodes":[],"categories_segments":[],"categories_sizes":[],"default_left":[0,0,0,0,0,0,0,0,0,0,0,0,0,0,0,0,0],"id":14,"left_children":[1,3,-1,5,7,9,-1,-1,11,13,-1,-1,-1,-1,15,-1,-1],"loss_changes":[2.0120461E11,5.221809E10,0E0,1.4557519E10,3.4200412E9,5.3403863E9,0E0,0E0,5.5127654E8,1.312812E9,0E0,0E0,0E0,0E0,1.6218317E9,0E0,0E0],"parents":[2147483647,0,0,1,1,3,3,4,4,5,5,8,8,9,9,14,14],"right_children":[2,4,-1,6,8,10,-1,-1,12,14,-1,-1,-1,-1,16,-1,-1],"split_conditions":[2.1499999E0,9.513385E-1,1.008636E5,1.8938297E0,1.1694033E0,3.0717024E-1,2.04405E4,9.82355E3,1.0959707E0,-6.662599E-1,6.0858003E3,3.76577E4,9.8307E3,-1.1390846E4,7.5956054E-2,-3.5486409E3,-1.358565E4],"split_indices":[0,3,0,0,3,3,0,0,1,3,0,0,0,0,3,0,0],"split_type":[0,0,0,0,0,0,0,0,0,0,0,0,0,0,0,0,0],"sum_hessian":[2.8E1,2.7E1,1E0,2.2E1,5E0,2.1E1,1E0,2E0,3E0,1.9E1,2E0,2E0,1E0,7E0,1.2E1,1.1E1,1E0],"tree_param":{"num_deleted":"0","num_feature":"4","num_nodes":"17","size_leaf_vector":"1"}},{"base_weights":[2.6473E4,7.005607E3,8.5734E4,-1.0408718E4,7.2592914E4,-1.6146818E4,1.7374426E4,7.85885E3,2.6772676E4,-2.01958E4,4.8686E3,-2.498731E4,-9.885121E3,-4.6997114E3,-9.221791E3,-3.691657E3,1.0586532E3],"categories":[],"categories_nodes":[],"categories_segments":[],"categories_sizes":[],"default_left":[0,0,0,0,0,0,0,0,0,0,0,0,0,0,0,0,0],"id":15,"left_children":[1,3,-1,5,7,9,-1,-1,-1,11,-1,13,15,-1,-1,-1,-1],"loss_changes":[1.4439085E11,3.2736043E10,0E0,9.952217E9,2.297043E9,3.2116813E9,0E0,0E0,0E0,7.410724E8,0E0,2.1547776E8,3.0316173E8,0E0,0E0,0E0,0E0],"parents":[2147483647,0,0,1,1,3,3,4,4,5,5,9,9,11,11,12,12],"right_children":[2,4,-1,6,8,10,-1,-1,-1,12,-1,14,16,-1,-1,-1,-1],"split_conditions":[2.1499999E0,9.513385E-1,8.5734E4,1.8938297E0,1.1694033E0,3.0717024E-1,1.7374426E4,7.85885E3,2.6772676E4,-2.7446806E-2,4.8686E3,1.0741723E0,-3.563664E-1,-4.6997114E3,-9.221791E3,-3.691657E3,1.0586532E3],"split_indices":[0,3,0,0,3,3,0,0,0,0,0,2,3,0,0,0,0],"split_type":[0,0,0,0,0,0,0,0,0,0,0,0,0,0,0,0,0],"sum_hessian":[2.8E1,2.7E1,1E0,2.2E1,5E0,2.1E1,1E0,2E0,3E0,1.9E1,2E0,1.2E1,7E0,6E0,6E0,6E0,1E0],"tree_param":{"num_deleted":"0","num_feature":"4","num_nodes":"17","size_leaf_vector":"1"}},{"base_weights":[2.287779E4,6.3439233E3,7.287391E4,-7.038767E3,5.6586918E4,-1.1833938E4,1.4768251E4,6.2870503E3,6.916275E4,-1.4964782E4,3.8949001E3,2.4771602E4,4.34025E3,-6.307442E3,-8.095236E3,-6.385191E2,-1.0164544E4],"categories":[],"categories_nodes":[],"categories_segments":[],"categories_sizes":[],"default_left":[0,0,0,0,0,0,0,0,0,0,0,0,0,0,0,0,0],"id":16,"left_children":[1,3,-1,5,7,9,-1,-1,11,13,-1,-1,-1,-1,15,-1,-1],"loss_changes":[1.0396192E11,1.922512E10,0E0,6.788102E9,1.2390359E9,1.9036426E9,0E0,0E0,1.7390797E9,6.623913E8,0E0,0E0,0E0,0E0,1.620394E9,0E0,0E0],"parents":[2147483647,0,0,1,1,3,3,4,4,5,5,8,8,9,9,14,14],"right_children":[2,4,-1,6,8,10,-1,-1,12,14,-1,-1,-1,-1,16,-1,-1],"split_conditions":[2.1499999E0,9.513385E-1,7.287391E4,1.8938297E0,1.1694033E0,3.0717024E-1,1.4768251E4,6.2870503E3,1.0959707E0,-5.951667E-1,3.8949001E3,2.4771602E4,4.34025E3,-6.307442E3,7.5956054E-2,-6.385191E2,-1.0164544E4],"split_indices":[0,3,0,0,3,3,0,0,1,3,0,0,0,0,3,0,0],"split_type":[0,0,0,0,0,0,0,0,0,0,0,0,0,0,0,0,0],"sum_hessian":[2.8E1,2.7E1,1E0,2.2E1,5E0,2.1E1,1E0,2E0,3E0,1.9E1,2E0,2E0,1E0,9E0,1E1,9E0,1E0],"tree_param":{"num_deleted":"0","num_feature":"4","num_nodes":"17","size_leaf_vector":"1"}},{"base_weights":[1.9801514E4,5.7604253E3,6.19428E4,-4.8596562E3,4.5510668E4,-8.884481E3,1.2552976E4,5.0296504E3,5.5691875E4,-1.133088E4,3.1159001E3,1.981725E4,3.6892502E3,-8.895709E3,-8.639869E3,-4.6979033E3,-3.726511E2],"categories":[],"categories_nodes":[],"categories_segments":[],"categories_sizes":[],"default_left":[0,0,0,0,0,0,0,0,0,0,0,0,0,0,0,0,0],"id":17,"left_children":[1,3,-1,5,7,9,-1,-1,11,13,-1,-1,-1,15,-1,-1,-1],"loss_changes":[7.482289E10,1.2041388E10,0E0,4.6950897E9,8.2226074E8,1.1548562E9,0E0,0E0,9.868974E8,5.9459174E8,0E0,0E0,0E0,9.6414554E8,0E0,0E0,0E0],"parents":[2147483647,0,0,1,1,3,3,4,4,5,5,8,8,9,9,13,13],"right_children":[2,4,-1,6,8,10,-1,-1,12,14,-1,-1,-1,16,-1,-1,-1],"split_conditions":[2.1499999E0,9.513385E-1,6.19428E4,1.8938297E0,1.1694033E0,3.0717024E-1,1.2552976E4,5.0296504E3,1.0959707E0,7.5956054E-2,3.1159001E3,1.981725E4,3.6892502E3,-7.959574E-1,-8.639869E3,-4.6979033E3,-3.726511E2],"split_indices":[0,3,0,0,3,3,0,0,1,3,0,0,0,0,0,0,0],"split_type":[0,0,0,0,0,0,0,0,0,0,0,0,0,0,0,0,0],"sum_hessian":[2.8E1,2.7E1,1E0,2.2E1,5E0,2.1E1,1E0,2E0,3E0,1.9E1,2E0,2E0,1E0,1.8E1,1E0,9E0,9E0],"tree_param":{"num_deleted":"0","num_feature":"4","num_nodes":"17","size_leaf_vector":"1"}},{"base_weights":[1.704854E4,5.12138E3,5.265135E4,-3.3166243E3,3.66135E4,-6.7007207E3,1.0670025E4,4.0237502E3,4.4860875E4,-8.617143E3,2.4927002E3,1.5853801E4,3.1358252E3,-6.493874E3,-7.3438877E3,-3.7804683E3,-2.7189716E2],"categories":[],"categories_nodes":[],"categories_segments":[],"categories_sizes":[],"default_left":[0,0,0,0,0,0,0,0,0,0,0,0,0,0,0,0,0],"id":18,"left_children":[1,3,-1,5,7,9,-1,-1,11,13,-1,-1,-1,15,-1,-1,-1],"loss_changes":[5.390913E10,7.5618913E9,0E0,3.26478E9,5.4638694E8,7.04429E8,0E0,0E0,5.466271E8,5.146386E8,0E0,0E0,0E0,6.36992E8,0E0,0E0,0E0],"parents":[2147483647,0,0,1,1,3,3,4,4,5,5,8,8,9,9,13,13],"right_children":[2,4,-1,6,8,10,-1,-1,12,14,-1,-1,-1,16,-1,-1,-1],"split_conditions":[2.1499999E0,9.513385E-1,5.265135E4,1.8938297E0,1.1694033E0,3.0717024E-1,1.0670025E4,4.0237502E3,1.0959707E0,7.5956054E-2,2.4927002E3,1.5853801E4,3.1358252E3,-6.6200644E-1,-7.3438877E3,-3.7804683E3,-2.7189716E2],"split_indices":[0,3,0,0,3,3,0,0,1,3,0,0,0,3,0,0,0],"split_type":[0,0,0,0,0,0,0,0,0,0,0,0,0,0,0,0,0],"sum_hessian":[2.8E1,2.7E1,1E0,2.2E1,5E0,2.1E1,1E0,2E0,3E0,1.9E1,2E0,2E0,1E0,1.8E1,1E0,8E0,1E1],"tree_param":{"num_deleted":"0","num_feature":"4","num_nodes":"17","size_leaf_vector":"1"}},{"base_weights":[1.4604004E4,4.4699326E3,4.4753703E4,-2.2448215E3,2.9464834E4,-5.0951997E3,9.069525E3,3.21895E3,3.6149875E4,-6.60182E3,1.9942001E3,1.2683001E4,2.665425E3,-4.759001E3,-6.2423066E3,-2.7245142E3,1.188375E1],"categories":[],"categories_nodes":[],"categories_segments":[],"categories_sizes":[],"default_left":[0,0,0,0,0,0,0,0,0,0,0,0,0,0,0,0,0],"id":19,"left_children":[1,3,-1,5,7,9,-1,-1,11,13,-1,-1,-1,15,-1,-1,-1],"loss_changes":[3.888317E10,4.765512E9,0E0,2.2831585E9,3.635835E8,4.3309824E8,0E0,0E0,2.925737E8,4.245531E8,0E0,0E0,0E0,3.9447725E8,0E0,0E0,0E0],"parents":[2147483647,0,0,1,1,3,3,4,4,5,5,8,8,9,9,13,13],"right_children":[2,4,-1,6,8,10,-1,-1,12,14,-1,-1,-1,16,-1,-1,-1],"split_conditions":[2.1499999E0,9.513385E-1,4.4753703E4,1.8938297E0,1.1694033E0,3.0717024E-1,9.069525E3,3.21895E3,1.0959707E0,7.5956054E-2,1.9942001E3,1.2683001E4,2.665425E3,-7.959574E-1,-6.2423066E3,-2.7245142E3,1.188375E1],"split_indices":[0,3,0,0,3,3,0,0,1,3,0,0,0,0,0,0,0],"split_type":[0,0,0,0,0,0,0,0,0,0,0,0,0,0,0,0,0],"sum_hessian":[2.8E1,2.7E1,1E0,2.2E1,5E0,2.1E1,1E0,2E0,3E0,1.9E1,2E0,2E0,1E0,1.8E1,1E0,9E0,9E0],"tree_param":{"num_deleted":"0","num_feature":"4","num_nodes":"17","size_leaf_vector":"1"}},{"base_weights":[1.2479002E4,3.867395E3,3.80406E4,-1.4796711E3,2.3719916E4,-3.8830198E3,7.7091E3,2.57515E3,2.9142E4,-5.069022E3,1.5954E3,1.01464E4,2.2656E3,-3.474069E3,-5.3059688E3,-2.364494E3,-7.3853615E1],"categories":[],"categories_nodes":[],"categories_segments":[],"categories_sizes":[],"default_left":[0,0,0,0,0,0,0,0,0,0,0,0,0,0,0,0,0],"id":20,"left_children":[1,3,-1,5,7,9,-1,-1,11,13,-1,-1,-1,15,-1,-1,-1],"loss_changes":[2.8060246E10,3.0073746E9,0E0,1.6020273E9,2.4226458E8,2.670305E8,0E0,0E0,1.4868864E8,3.410433E8,0E0,0E0,0E0,2.6837602E8,0E0,0E0,0E0],"parents":[2147483647,0,0,1,1,3,3,4,4,5,5,8,8,9,9,13,13],"right_children":[2,4,-1,6,8,10,-1,-1,12,14,-1,-1,-1,16,-1,-1,-1],"split_conditions":[2.1499999E0,9.513385E-1,3.80406E4,1.8938297E0,1.1694033E0,3.0717024E-1,7.7091E3,2.57515E3,1.0959707E0,7.5956054E-2,1.5954E3,1.01464E4,2.2656E3,-6.662599E-1,-5.3059688E3,-2.364494E3,-7.3853615E1],"split_indices":[0,3,0,0,3,3,0,0,1,3,0,0,0,3,0,0,0],"split_type":[0,0,0,0,0,0,0,0,0,0,0,0,0,0,0,0,0],"sum_hessian":[2.8E1,2.7E1,1E0,2.2E1,5E0,2.1E1,1E0,2E0,3E0,1.9E1,2E0,2E0,1E0,1.8E1,1E0,7E0,1.1E1],"tree_param":{"num_deleted":"0","num_feature":"4","num_nodes":"17","size_leaf_vector":"1"}},{"base_weights":[1.0617656E4,3.2981797E3,3.2334451E4,-9.6793335E2,1.9101916E4,-2.997612E3,6.5527505E3,6.8671665E3,2.35025E4,-3.9355234E3,1.2763E3,2.4380251E3,6.522E2,8.11715E3,1.925775E3,-2.5601758E3,-4.510069E3,-1.2501884E3,8.319647E2],"categories":[],"categories_nodes":[],"categories_segments":[],"categories_sizes":[],"default_left":[0,0,0,0,0,0,0,0,0,0,0,0,0,0,0,0,0,0,0],"id":21,"left_children":[1,3,-1,5,7,9,-1,11,13,15,-1,-1,-1,-1,-1,17,-1,-1,-1],"loss_changes":[2.0268984E10,1.9062643E9,0E0,1.130326E9,1.6164454E8,1.6638E8,0E0,6.6736E4,6.921446E7,2.667846E8,0E0,0E0,0E0,0E0,0E0,1.7441328E8,0E0,0E0,0E0],"parents":[2147483647,0,0,1,1,3,3,4,4,5,5,7,7,8,8,9,9,15,15],"right_children":[2,4,-1,6,8,10,-1,12,14,16,-1,-1,-1,-1,-1,18,-1,-1,-1],"split_conditions":[2.1499999E0,9.513385E-1,3.2334451E4,1.8938297E0,1.1694033E0,3.0717024E-1,6.5527505E3,7.410638E-1,1.0959707E0,7.5956054E-2,1.2763E3,2.4380251E3,6.522E2,8.11715E3,1.925775E3,-4.94907E-1,-4.510069E3,-1.2501884E3,8.319647E2],"split_indices":[0,3,0,0,3,3,0,0,1,3,0,0,0,0,0,3,0,0,0],"split_type":[0,0,0,0,0,0,0,0,0,0,0,0,0,0,0,0,0,0,0],"sum_hessian":[2.8E1,2.7E1,1E0,2.2E1,5E0,2.1E1,1E0,2E0,3E0,1.9E1,2E0,1E0,1E0,2E0,1E0,1.8E1,1E0,1.4E1,4E0],"tree_param":{"num_deleted":"0","num_feature":"4","num_nodes":"19","size_leaf_vector":"1"}},{"base_weights":[9.100239E3,2.881355E3,2.7484352E4,-5.5145905E2,1.556025E4,-2.2643435E3,5.5698003E3,5.8371665E3,1.89625E4,-3.0012778E3,1.021E3,2.0723252E3,5.544E2,6.4937505E3,1.6368751E3,-1.8141346E3,-3.83355E3,-1.2700837E3,2.3602701E2],"categories":[],"categories_nodes":[],"categories_segments":[],"categories_sizes":[],"default_left":[0,0,0,0,0,0,0,0,0,0,0,0,0,0,0,0,0,0,0],"id":22,"left_children":[1,3,-1,5,7,9,-1,11,13,15,-1,-1,-1,-1,-1,17,-1,-1,-1],"loss_changes":[1.4617278E10,1.2272609E9,0E0,7.951978E8,8.779494E7,1.0210187E8,0E0,4.6688E4,2.6861952E7,2.0895734E8,0E0,0E0,0E0,0E0,0E0,1.2289399E8,0E0,0E0,0E0],"parents":[2147483647,0,0,1,1,3,3,4,4,5,5,7,7,8,8,9,9,15,15],"right_children":[2,4,-1,6,8,10,-1,12,14,16,-1,-1,-1,-1,-1,18,-1,-1,-1],"split_conditions":[2.1499999E0,9.513385E-1,2.7484352E4,1.8938297E0,1.1694033E0,3.0717024E-1,5.5698003E3,7.410638E-1,1.0959707E0,7.5956054E-2,1.021E3,2.0723252E3,5.544E2,6.4937505E3,1.6368751E3,-5.951667E-1,-3.83355E3,-1.2700837E3,2.3602701E2],"split_indices":[0,3,0,0,3,3,0,0,1,3,0,0,0,0,0,3,0,0,0],"split_type":[0,0,0,0,0,0,0,0,0,0,0,0,0,0,0,0,0,0,0],"sum_hessian":[2.8E1,2.7E1,1E0,2.2E1,5E0,2.1E1,1E0,2E0,3E0,1.9E1,2E0,1E0,1E0,2E0,1E0,1.8E1,1E0,9E0,9E0],"tree_param":{"num_deleted":"0","num_feature":"4","num_nodes":"19","size_leaf_vector":"1"}},{"base_weights":[7.748244E3,2.4626458E3,2.336175E4,-1.746558E3,9.126557E3,-1.7675098E2,-4.8567134E3,1.3130209E3,1.5419E4,-3.2217764E3,7.48E3,-1.7874586E3,-5.3075E2,-5.149125E3,5.831375E3,4.99431E3,1.3913251E3,-6.667798E3,1.8687126E2,3.111969E3,-1.7995312E2,-3.2585251E3,9.4141876E2,2.487975E3,6.739E2,-1.13847E3,-2.7239087E3,-2.9755402E2,9.1206915E2],"categories":[],"categories_nodes":[],"categories_segments":[],"categories_sizes":[],"default_left":[0,0,0,0,0,0,0,0,0,0,0,0,0,0,0,0,0,0,0,0,0,0,0,0,0,0,0,0,0],"id":23,"left_children":[1,3,-1,5,7,9,11,13,15,17,19,-1,-1,21,23,-1,-1,25,27,-1,-1,-1,-1,-1,-1,-1,-1,-1,-1],"loss_changes":[1.055704E10,8.013333E8,0E0,8.702376E7,5.205831E8,3.271939E8,9.864224E6,2.0521606E8,2.273664E6,1.18708744E8,9.972966E7,0E0,0E0,1.7610965E8,1.6674272E7,0E0,0E0,1.89136E5,2.3195274E7,0E0,0E0,0E0,0E0,0E0,0E0,0E0,0E0,0E0,0E0],"parents":[2147483647,0,0,1,1,3,3,4,4,5,5,6,6,7,7,8,8,9,9,10,10,13,13,14,14,17,17,18,18],"right_children":[2,4,-1,6,8,10,12,14,16,18,20,-1,-1,22,24,-1,-1,26,28,-1,-1,-1,-1,-1,-1,-1,-1,-1,-1],"split_conditions":[2.1499999E0,-3.563664E-1,2.336175E4,-1.022272E-1,1.0294042E0,-7.959574E-1,7.410638E-1,3.0717024E-1,1.284702E0,1.0741723E0,-5.397872E-1,-1.7874586E3,-5.3075E2,-2.7446806E-2,-5.397872E-1,4.99431E3,1.3913251E3,-9.6759236E-1,-5.951667E-1,3.111969E3,-1.7995312E2,-3.2585251E3,9.4141876E2,2.487975E3,6.739E2,-1.13847E3,-2.7239087E3,-2.9755402E2,9.1206915E2],"split_indices":[0,3,0,1,1,0,0,3,3,2,0,0,0,0,0,0,0,1,3,0,0,0,0,0,0,0,0,0,0],"split_type":[0,0,0,0,0,0,0,0,0,0,0,0,0,0,0,0,0,0,0,0,0,0,0,0,0,0,0,0,0],"sum_hessian":[2.8E1,2.7E1,1E0,1.7E1,1E1,1.2E1,5E0,5E0,5E0,9E0,3E0,3E0,2E0,2E0,3E0,4E0,1E0,4E0,5E0,2E0,1E0,1E0,1E0,1E0,2E0,3E0,1E0,4E0,1E0],"tree_param":{"num_deleted":"0","num_feature":"4","num_nodes":"29","size_leaf_vector":"1"}},{"base_weights":[6.3878086E3,1.8879806E3,1.9857451E4,2.0478243E1,1.3087875E4,-1.0856477E3,3.9851252E3,4.44675E3,1.1826001E3,-1.5437272E3,-2.6059604E2,2.1864973E3,-1.9346917E3,-2.2359747E2,2.489575E3,-1.228883E3,7.0293005E2],"categories":[],"categories_nodes":[],"categories_segments":[],"categories_sizes":[],"default_left":[0,0,0,0,0,0,0,0,0,0,0,0,0,0,0,0,0],"id":24,"left_children":[1,3,-1,5,7,9,-1,-1,-1,-1,11,13,15,-1,-1,-1,-1],"loss_changes":[7.6791153E9,5.853752E8,0E0,3.8119267E8,5.028352E6,7.905423E7,0E0,0E0,0E0,0E0,9.026023E7,1.674611E8,1.29806536E8,0E0,0E0,0E0,0E0],"parents":[2147483647,0,0,1,1,3,3,4,4,5,5,10,10,11,11,12,12],"right_children":[2,4,-1,6,8,10,-1,-1,-1,-1,12,14,16,-1,-1,-1,-1],"split_conditions":[2.1499999E0,1.1694033E0,1.9857451E4,1.8938297E0,1.0959707E0,-6.753744E-1,3.9851252E3,4.44675E3,1.1826001E3,-1.5437272E3,-5.397872E-1,-7.959574E-1,3.0717024E-1,-2.2359747E2,2.489575E3,-1.228883E3,7.0293005E2],"split_indices":[0,3,0,0,1,3,0,0,0,0,0,0,3,0,0,0,0],"split_type":[0,0,0,0,0,0,0,0,0,0,0,0,0,0,0,0,0],"sum_hessian":[2.8E1,2.7E1,1E0,2.4E1,3E0,2.3E1,1E0,2E0,1E0,3E0,2E1,8E0,1.2E1,6E0,2E0,8E0,4E0],"tree_param":{"num_deleted":"0","num_feature":"4","num_nodes":"17","size_leaf_vector":"1"}},{"base_weights":[5.49452E3,1.6719672E3,1.68789E4,1.815832E2,3.1706626E3,-7.517883E2,3.3873752E3,-1.1963884E3,-9.957501E1,1.7823224E3,-1.3947675E3,-1.661011E2,1.9916595E3,-2.585419E3,-2.239629E1],"categories":[],"categories_nodes":[],"categories_segments":[],"categories_sizes":[],"default_left":[0,0,0,0,0,0,0,0,0,0,0,0,0,0,0],"id":25,"left_children":[1,3,-1,5,-1,7,-1,-1,9,11,13,-1,-1,-1,-1],"loss_changes":[5.533821E9,3.6935552E8,0E0,2.6772482E8,0E0,5.02591E7,0E0,0E0,5.3671724E7,1.0577937E8,1.2331899E8,0E0,0E0,0E0,0E0],"parents":[2147483647,0,0,1,1,3,3,5,5,8,8,9,9,10,10],"right_children":[2,4,-1,6,-1,8,-1,-1,10,12,14,-1,-1,-1,-1],"split_conditions":[2.1499999E0,1.1694033E0,1.68789E4,1.8938297E0,3.1706626E3,-6.753744E-1,3.3873752E3,-1.1963884E3,-5.397872E-1,-7.959574E-1,-2.7446806E-2,-1.661011E2,1.9916595E3,-2.585419E3,-2.239629E1],"split_indices":[0,3,0,0,0,3,0,0,0,0,0,0,0,0,0],"split_type":[0,0,0,0,0,0,0,0,0,0,0,0,0,0,0],"sum_hessian":[2.8E1,2.7E1,1E0,2.4E1,3E0,2.3E1,1E0,3E0,2E1,8E0,1.2E1,6E0,2E0,1E0,1.1E1],"tree_param":{"num_deleted":"0","num_feature":"4","num_nodes":"15","size_leaf_vector":"1"}},{"base_weights":[4.5861064E3,1.3339315E3,1.4347051E4,-1.4210513E2,6.76975E3,-1.02106445E3,2.87925E3,3.5735E3,3.4126501E3,-7.406222E1,-2.3807275E3,1.2060376E3,2.6805002E2,-3.0906697E3,1.0296189E3,-5.692746E3,2.2407292E2,-1.0695895E3,-2.5001764E2,9.0747534E2,-5.9091705E2,-2.2568696E3,-7.725188E2,8.828938E2,-5.613375E2],"categories":[],"categories_nodes":[],"categories_segments":[],"categories_sizes":[],"default_left":[0,0,0,0,0,0,0,0,0,0,0,0,0,0,0,0,0,0,0,0,0,0,0,0,0],"id":26,"left_children":[1,3,-1,5,7,9,-1,11,-1,13,15,-1,-1,17,19,21,23,-1,-1,-1,-1,-1,-1,-1,-1],"loss_changes":[4.0140577E9,2.2561909E8,0E0,2.0669614E8,4.7676416E7,2.8150962E7,0E0,2.392792E6,0E0,4.9793428E7,7.891992E7,0E0,0E0,1.31418E6,7.178868E7,3.451408E6,3.968656E7,0E0,0E0,0E0,0E0,0E0,0E0,0E0,0E0],"parents":[2147483647,0,0,1,1,3,3,4,4,5,5,7,7,9,9,10,10,13,13,14,14,15,15,16,16],"right_children":[2,4,-1,6,8,10,-1,12,-1,14,16,-1,-1,18,20,22,24,-1,-1,-1,-1,-1,-1,-1,-1],"split_conditions":[2.1499999E0,9.513385E-1,1.4347051E4,1.8938297E0,1.1253191E0,-5.249849E-1,2.87925E3,7.410638E-1,3.4126501E3,-6.753744E-1,-2.7446806E-2,1.2060376E3,2.6805002E2,-1.034159E0,-5.397872E-1,-7.959574E-1,6.129787E-1,-1.0695895E3,-2.5001764E2,9.0747534E2,-5.9091705E2,-2.2568696E3,-7.725188E2,8.828938E2,-5.613375E2],"split_indices":[0,3,0,0,0,3,0,0,0,3,0,0,0,1,0,0,0,0,0,0,0,0,0,0,0],"split_type":[0,0,0,0,0,0,0,0,0,0,0,0,0,0,0,0,0,0,0,0,0,0,0,0,0],"sum_hessian":[2.8E1,2.7E1,1E0,2.2E1,5E0,2.1E1,1E0,4E0,1E0,1.3E1,8E0,3E0,1E0,3E0,1E1,3E0,5E0,2E0,1E0,6E0,4E0,1E0,2E0,2E0,3E0],"tree_param":{"num_deleted":"0","num_feature":"4","num_nodes":"25","size_leaf_vector":"1"}},{"base_weights":[3.8448394E3,1.0785835E3,1.2195E4,-1.878032E2,5.7533022E3,-1.0922764E3,2.5569167E3,-5.911875E1,2.6333252E3,-3.4016022E2,-2.0817375E3,2.0400002E2,2.7963E3,5.136269E2,-9.730125E2,9.3468756E2,2.2785E2,-4.5399228E2,1.3394312E3],"categories":[],"categories_nodes":[],"categories_segments":[],"categories_sizes":[],"default_left":[0,0,0,0,0,0,0,0,0,0,0,0,0,0,0,0,0,0,0],"id":27,"left_children":[1,3,-1,5,7,9,11,-1,-1,13,-1,-1,15,17,-1,-1,-1,-1,-1],"loss_changes":[2.9087178E9,1.6684053E8,0E0,5.989094E7,1.097092E8,7.679475E7,7.94332E5,0E0,0E0,4.380425E7,0E0,0E0,8.85688E5,1.1887848E8,0E0,0E0,0E0,0E0,0E0],"parents":[2147483647,0,0,1,1,3,3,4,4,5,5,6,6,9,9,12,12,13,13],"right_children":[2,4,-1,6,8,10,12,-1,-1,14,-1,-1,16,18,-1,-1,-1,-1,-1],"split_conditions":[2.1499999E0,1.1253191E0,1.2195E4,3.0717024E-1,-3.563664E-1,7.5956054E-2,9.513385E-1,-5.911875E1,2.6333252E3,-1.022272E-1,-2.0817375E3,2.0400002E2,7.410638E-1,-7.959574E-1,-9.730125E2,9.3468756E2,2.2785E2,-4.5399228E2,1.3394312E3],"split_indices":[0,0,0,3,3,3,3,0,0,1,0,0,0,0,0,0,0,0,0],"split_type":[0,0,0,0,0,0,0,0,0,0,0,0,0,0,0,0,0,0,0],"sum_hessian":[2.8E1,2.7E1,1E0,2.2E1,5E0,1.7E1,5E0,2E0,3E0,1.6E1,1E0,1E0,4E0,1.3E1,3E0,3E0,1E0,9E0,4E0],"tree_param":{"num_deleted":"0","num_feature":"4","num_nodes":"19","size_leaf_vector":"1"}},{"base_weights":[3.1730017E3,8.182875E2,1.036575E4,-2.0621523E2,4.6091665E3,-8.3752045E2,2.052375E3,2.19E3,2.50575E3,-2.4255E2,-3.45425E3,2.41475E3,1.9365001E2,4.227837E2,-1.7545703E3,-1.4973E3,1.7340001E2,2.0857501E2,8.2685004E2,-3.3141412E2,1.0179666E3,-7.5408636E2,-4.729375E1],"categories":[],"categories_nodes":[],"categories_segments":[],"categories_sizes":[],"default_left":[0,0,0,0,0,0,0,0,0,0,0,0,0,0,0,0,0,0,0,0,0,0,0],"id":28,"left_children":[1,3,-1,5,7,9,-1,11,-1,13,15,17,-1,19,21,-1,-1,-1,-1,-1,-1,-1,-1],"loss_changes":[2.1145288E9,1.0969594E8,0E0,1.08059016E8,3.6042504E7,3.341346E7,0E0,1.7691E5,0E0,1.9855766E7,2.7671044E7,4.32042E5,0E0,6.727125E7,6.876618E6,0E0,0E0,0E0,0E0,0E0,0E0,0E0,0E0],"parents":[2147483647,0,0,1,1,3,3,4,4,5,5,7,7,9,9,10,10,11,11,13,13,14,14],"right_children":[2,4,-1,6,8,10,-1,12,-1,14,16,18,-1,20,22,-1,-1,-1,-1,-1,-1,-1,-1],"split_conditions":[2.1499999E0,9.513385E-1,1.036575E4,1.8938297E0,1.1253191E0,7.5956054E-2,2.052375E3,7.410638E-1,2.50575E3,-1.022272E-1,7.368545E-1,1.0741723E0,1.9365001E2,-7.959574E-1,7.410638E-1,-1.4973E3,1.7340001E2,2.0857501E2,8.2685004E2,-3.3141412E2,1.0179666E3,-7.5408636E2,-4.729375E1],"split_indices":[0,3,0,0,0,3,0,0,0,1,3,2,0,0,0,0,0,0,0,0,0,0,0],"split_type":[0,0,0,0,0,0,0,0,0,0,0,0,0,0,0,0,0,0,0,0,0,0,0],"sum_hessian":[2.8E1,2.7E1,1E0,2.2E1,5E0,2.1E1,1E0,4E0,1E0,1.8E1,3E0,3E0,1E0,1.3E1,5E0,2E0,1E0,1E0,2E0,9E0,4E0,3E0,2E0],"tree_param":{"num_deleted":"0","num_feature":"4","num_nodes":"23","size_leaf_vector":"1"}},{"base_weights":[2.7284644E3,7.28088E2,8.810851E3,-1.4718092E2,3.9619375E3,-7.36759E2,1.6460834E3,-3.78375E1,1.8112501E3,-1.7425948E2,-1.5448876E3,1.47375E2,5.3364E2,3.4499017E2,-5.8442053E2,-2.419321E2,7.7365594E2],"categories":[],"categories_nodes":[],"categories_segments":[],"categories_sizes":[],"default_left":[0,0,0,0,0,0,0,0,0,0,0,0,0,0,0,0,0],"id":29,"left_children":[1,3,-1,5,7,9,11,-1,-1,13,-1,-1,-1,15,-1,-1,-1],"loss_changes":[1.5240873E9,7.983679E7,0E0,2.552996E7,5.1671664E7,4.3782856E7,4.5756E4,0E0,0E0,1.6329908E7,0E0,0E0,0E0,3.808962E7,0E0,0E0,0E0],"parents":[2147483647,0,0,1,1,3,3,4,4,5,5,6,6,9,9,13,13],"right_children":[2,4,-1,6,8,10,12,-1,-1,14,-1,-1,-1,16,-1,-1,-1],"split_conditions":[2.1499999E0,1.1253191E0,8.810851E3,3.0717024E-1,-3.563664E-1,7.5956054E-2,9.513385E-1,-3.78375E1,1.8112501E3,-1.022272E-1,-1.5448876E3,1.47375E2,5.3364E2,-7.959574E-1,-5.8442053E2,-2.419321E2,7.7365594E2],"split_indices":[0,0,0,3,3,3,3,0,0,1,0,0,0,0,0,0,0],"split_type":[0,0,0,0,0,0,0,0,0,0,0,0,0,0,0,0,0],"sum_hessian":[2.8E1,2.7E1,1E0,2.2E1,5E0,1.7E1,5E0,2E0,3E0,1.6E1,1E0,1E0,4E0,1.3E1,3E0,9E0,4E0],"tree_param":{"num_deleted":"0","num_feature":"4","num_nodes":"17","size_leaf_vector":"1"}},{"base_weights":[2.2432974E3,5.402722E2,7.4892E3,-3.5575096E1,4.00425E3,-4.4616156E2,1.472775E3,1.2096666E3,1.8582001E3,3.5678888E2,-1.4275383E3,4.47075E2,9.7275E1,-5.7376587E2,2.1465405E3,-1.7642345E3,-3.9413593E2,-6.148359E2,1.5401239E1,1.0647141E3,8.556251E0,6.8505237E2,-2.8361252E2],"categories":[],"categories_nodes":[],"categories_segments":[],"categories_sizes":[],"default_left":[0,0,0,0,0,0,0,0,0,0,0,0,0,0,0,0,0,0,0,0,0,0,0],"id":30,"left_children":[1,3,-1,5,7,9,-1,11,-1,13,15,-1,-1,17,19,-1,21,-1,-1,-1,-1,-1,-1],"loss_changes":[1.1086365E9,5.5994676E7,0E0,5.2947276E7,1.698508E7,1.9421256E7,0E0,2.620855E5,0E0,2.454808E7,4.8304084E7,0E0,0E0,9.329782E6,1.4751456E7,0E0,1.691899E7,0E0,0E0,0E0,0E0,0E0,0E0],"parents":[2147483647,0,0,1,1,3,3,4,4,5,5,7,7,9,9,10,10,13,13,14,14,16,16],"right_children":[2,4,-1,6,8,10,-1,12,-1,14,16,-1,-1,18,20,-1,22,-1,-1,-1,-1,-1,-1],"split_conditions":[2.1499999E0,1.1694033E0,7.4892E3,1.8938297E0,7.410638E-1,-5.249849E-1,1.472775E3,-5.397872E-1,1.8582001E3,-5.951667E-1,-7.959574E-1,4.47075E2,9.7275E1,-1.0521276E0,-5.397872E-1,-1.7642345E3,-6.678723E-1,-6.148359E2,1.5401239E1,1.0647141E3,8.556251E0,6.8505237E2,-2.8361252E2],"split_indices":[0,3,0,0,0,3,0,0,0,3,0,0,0,0,0,0,0,0,0,0,0,0,0],"split_type":[0,0,0,0,0,0,0,0,0,0,0,0,0,0,0,0,0,0,0,0,0,0,0],"sum_hessian":[2.8E1,2.7E1,1E0,2.4E1,3E0,2.3E1,1E0,2E0,1E0,1.3E1,1E1,1E0,1E0,9E0,4E0,1E0,9E0,2E0,7E0,2E0,2E0,1E0,8E0],"tree_param":{"num_deleted":"0","num_feature":"4","num_nodes":"23","size_leaf_vector":"1"}},{"base_weights":[1.9315212E3,4.848256E2,6.36585E3,-1.6249492E2,2.8854167E3,-5.49222E2,1.2518251E3,1.3565E3,1.5795001E3,2.835965E2,-1.7836927E3,8.265E1,1.557875E3,-1.5768585E3,9.343441E2,-1.4995992E3,-7.569883E2,5.384E2,1.2712501E2,-5.9026044E2,-6.072444E1,6.9318884E2,-3.5379727E2,2.7020065E2,-7.919438E2],"categories":[],"categories_nodes":[],"categories_segments":[],"categories_sizes":[],"default_left":[0,0,0,0,0,0,0,0,0,0,0,0,0,0,0,0,0,0,0,0,0,0,0,0,0],"id":31,"left_children":[1,3,-1,5,7,9,-1,11,-1,13,15,-1,17,19,21,-1,23,-1,-1,-1,-1,-1,-1,-1,-1],"loss_changes":[7.9892346E8,4.3979516E7,0E0,4.0852564E7,1.4687136E7,2.3123832E7,0E0,6.59236E5,0E0,1.8422942E7,2.5923498E7,0E0,3.13715E5,1.749593E6,3.47241E7,0E0,2.734621E7,0E0,0E0,0E0,0E0,0E0,0E0,0E0,0E0],"parents":[2147483647,0,0,1,1,3,3,4,4,5,5,7,7,9,9,10,10,12,12,13,13,14,14,16,16],"right_children":[2,4,-1,6,8,10,-1,12,-1,14,16,-1,18,20,22,-1,24,-1,-1,-1,-1,-1,-1,-1,-1],"split_conditions":[2.1499999E0,9.513385E-1,6.36585E3,1.8938297E0,1.1253191E0,-5.249849E-1,1.2518251E3,1.0741723E0,1.5795001E3,-6.753744E-1,-7.959574E-1,8.265E1,7.410638E-1,-1.034159E0,-5.397872E-1,-1.4995992E3,7.5956054E-2,5.384E2,1.2712501E2,-5.9026044E2,-6.072444E1,6.9318884E2,-3.5379727E2,2.7020065E2,-7.919438E2],"split_indices":[0,3,0,0,0,3,0,2,0,3,0,0,0,1,0,0,3,0,0,0,0,0,0,0,0],"split_type":[0,0,0,0,0,0,0,0,0,0,0,0,0,0,0,0,0,0,0,0,0,0,0,0,0],"sum_hessian":[2.8E1,2.7E1,1E0,2.2E1,5E0,2.1E1,1E0,4E0,1E0,1.3E1,8E0,1E0,3E0,3E0,1E1,1E0,7E0,2E0,1E0,2E0,1E0,6E0,4E0,4E0,3E0],"tree_param":{"num_deleted":"0","num_feature":"4","num_nodes":"25","size_leaf_vector":"1"}},{"base_weights":[1.614542E3,3.8388275E2,5.41095E3,-2.5489922E2,2.3366428E3,2.2429837E2,-1.009375E3,1.2344166E3,1.3425E3,-2.8850183E2,9.679E2,7.0275E1,1.3876E3,1.7626329E2,-1.5321438E3,4.6631253E2,1.08075005E2,-1.6319125E2,4.744437E2,-1.2746602E3,6.2776173E1],"categories":[],"categories_nodes":[],"categories_segments":[],"categories_sizes":[],"default_left":[0,0,0,0,0,0,0,0,0,0,0,0,0,0,0,0,0,0,0,0,0],"id":32,"left_children":[1,3,-1,5,7,9,-1,11,-1,13,-1,-1,15,17,19,-1,-1,-1,-1,-1,-1],"loss_changes":[5.791613E8,3.552247E7,0E0,3.353804E7,1.0974656E7,3.1719684E7,0E0,5.94208E5,0E0,1.0674085E7,0E0,0E0,2.96718E5,1.5029459E7,2.454357E7,0E0,0E0,0E0,0E0,0E0,0E0],"parents":[2147483647,0,0,1,1,3,3,4,4,5,5,7,7,9,9,12,12,13,13,14,14],"right_children":[2,4,-1,6,8,10,-1,12,-1,14,-1,-1,16,18,20,-1,-1,-1,-1,-1,-1],"split_conditions":[2.1499999E0,7.368545E-1,5.41095E3,1.0665093E-1,1.1253191E0,-3.563664E-1,-1.009375E3,1.0741723E0,1.3425E3,-5.249849E-1,9.679E2,7.0275E1,7.410638E-1,-5.951667E-1,-7.959574E-1,4.6631253E2,1.08075005E2,-1.6319125E2,4.744437E2,-1.2746602E3,6.2776173E1],"split_indices":[0,3,0,3,0,3,0,2,0,3,0,0,0,3,0,0,0,0,0,0,0],"split_type":[0,0,0,0,0,0,0,0,0,0,0,0,0,0,0,0,0,0,0,0,0],"sum_hessian":[2.8E1,2.7E1,1E0,2.1E1,6E0,1.9E1,2E0,5E0,1E0,1.7E1,2E0,1E0,4E0,1.3E1,4E0,3E0,1E0,9E0,4E0,1E0,3E0],"tree_param":{"num_deleted":"0","num_feature":"4","num_nodes":"21","size_leaf_vector":"1"}},{"base_weights":[1.3527949E3,3.0603763E2,4.5993003E3,-2.2124757E2,1.9195E3,-5.2347363E2,9.18825E2,9.714167E2,1.1412001E3,-1.5358272E2,-2.691625E3,5.97E1,1.0861E3,5.733269E2,-6.2539056E2,-1.0004063E3,-2.1082501E2,3.6135E2,9.1875E1,-4.3957004E2,4.491158E2,-7.4039923E2,-3.0208595E0],"categories":[],"categories_nodes":[],"categories_segments":[],"categories_sizes":[],"default_left":[0,0,0,0,0,0,0,0,0,0,0,0,0,0,0,0,0,0,0,0,0,0,0],"id":33,"left_children":[1,3,-1,5,7,9,-1,11,-1,13,15,-1,17,19,21,-1,-1,-1,-1,-1,-1,-1,-1],"loss_changes":[4.1963E8,2.424582E7,0E0,2.3438484E7,8.811374E6,1.6428184E7,0E0,3.15366E5,0E0,6.874825E6,1.493462E6,0E0,9.2793E4,1.7258096E7,1.3580684E7,0E0,0E0,0E0,0E0,0E0,0E0,0E0,0E0],"parents":[2147483647,0,0,1,1,3,3,4,4,5,5,7,7,9,9,10,10,12,12,13,13,14,14],"right_children":[2,4,-1,6,8,10,-1,12,-1,14,16,-1,18,20,22,-1,-1,-1,-1,-1,-1,-1,-1],"split_conditions":[2.1499999E0,7.368545E-1,4.5993003E3,1.8938297E0,1.1253191E0,7.5956054E-2,9.18825E2,1.0741723E0,1.1412001E3,-9.6759236E-1,-2.7446806E-2,5.97E1,7.410638E-1,-6.753744E-1,-7.959574E-1,-1.0004063E3,-2.1082501E2,3.6135E2,9.1875E1,-4.3957004E2,4.491158E2,-7.4039923E2,-3.0208595E0],"split_indices":[0,3,0,0,0,3,0,2,0,1,0,0,0,3,0,0,0,0,0,0,0,0,0],"split_type":[0,0,0,0,0,0,0,0,0,0,0,0,0,0,0,0,0,0,0,0,0,0,0],"sum_hessian":[2.8E1,2.7E1,1E0,2.1E1,6E0,2E1,1E0,5E0,1E0,1.8E1,2E0,1E0,4E0,7E0,1.1E1,1E0,1E0,3E0,1E0,2E0,5E0,2E0,9E0],"tree_param":{"num_deleted":"0","num_feature":"4","num_nodes":"23","size_leaf_vector":"1"}},{"base_weights":[1.1272024E3,2.3663814E2,3.9094502E3,-2.0152875E2,1.5799286E3,-4.5905392E2,7.8097504E2,7.654167E2,9.7005005E2,2.9907068E2,-1.3228981E3,5.0775E1,8.508E2,-2.7030112E2,6.291859E2,-4.256066E2,-7.687301E2,2.800125E2,7.8075005E1,1.25988686E2,-9.724008E2,-4.681588E2,7.0906253E0],"categories":[],"categories_nodes":[],"categories_segments":[],"categories_sizes":[],"default_left":[0,0,0,0,0,0,0,0,0,0,0,0,0,0,0,0,0,0,0,0,0,0,0],"id":34,"left_children":[1,3,-1,5,7,9,-1,11,-1,13,15,-1,17,19,-1,21,-1,-1,-1,-1,-1,-1,-1],"loss_changes":[3.0436096E8,1.6798792E7,0E0,1.7085658E7,6.953E6,1.4148572E7,0E0,1.614185E5,0E0,1.285314E7,1.0031658E7,0E0,9.1225E2,2.1869206E7,0E0,3.6058688E6,0E0,0E0,0E0,0E0,0E0,0E0,0E0],"parents":[2147483647,0,0,1,1,3,3,4,4,5,5,7,7,9,9,10,10,12,12,13,13,15,15],"right_children":[2,4,-1,6,8,10,-1,12,-1,14,16,-1,18,20,-1,22,-1,-1,-1,-1,-1,-1,-1],"split_conditions":[2.1499999E0,7.368545E-1,3.9094502E3,1.8938297E0,1.1253191E0,-5.397872E-1,7.8097504E2,1.0741723E0,9.7005005E2,-7.959574E-1,1.0741723E0,5.0775E1,7.410638E-1,-5.350109E-1,6.291859E2,-6.662599E-1,-7.687301E2,2.800125E2,7.8075005E1,1.25988686E2,-9.724008E2,-4.681588E2,7.0906253E0],"split_indices":[0,3,0,0,0,0,0,2,0,0,2,0,0,3,0,3,0,0,0,0,0,0,0],"split_type":[0,0,0,0,0,0,0,0,0,0,0,0,0,0,0,0,0,0,0,0,0,0,0],"sum_hessian":[2.8E1,2.7E1,1E0,2.1E1,6E0,2E1,1E0,5E0,1E0,1.1E1,9E0,1E0,4E0,9E0,2E0,6E0,3E0,3E0,1E0,8E0,1E0,1E0,5E0],"tree_param":{"num_deleted":"0","num_feature":"4","num_nodes":"23","size_leaf_vector":"1"}},{"base_weights":[9.4845056E2,1.9110951E2,3.3231E3,-1.7133789E2,1.3029286E3,-3.9023492E2,6.63825E2,6.039167E2,8.2455005E2,-1.1016756E2,-2.0339166E3,4.3125E1,2.0016002E2,2.052341E2,-8.2774347E2,-7.3503754E2,-1.80225E2,-4.1577446E1,4.536375E2,-3.3577676E2,-4.8943752E1],"categories":[],"categories_nodes":[],"categories_segments":[],"categories_sizes":[],"default_left":[0,0,0,0,0,0,0,0,0,0,0,0,0,0,0,0,0,0,0,0,0],"id":35,"left_children":[1,3,-1,5,7,9,-1,11,-1,13,15,-1,-1,17,19,-1,-1,-1,-1,-1,-1],"loss_changes":[2.203353E8,1.1506567E7,0E0,1.2344627E7,5.413436E6,9.443103E6,0E0,7.88155E4,0E0,4.470049E6,3.17575E5,0E0,0E0,6.5003625E6,9.7982825E5,0E0,0E0,0E0,0E0,0E0,0E0],"parents":[2147483647,0,0,1,1,3,3,4,4,5,5,7,7,9,9,10,10,13,13,14,14],"right_children":[2,4,-1,6,8,10,-1,12,-1,14,16,-1,-1,18,20,-1,-1,-1,-1,-1,-1],"split_conditions":[2.1499999E0,7.368545E-1,3.3231E3,1.8938297E0,1.1253191E0,7.5956054E-2,6.63825E2,1.0741723E0,8.2455005E2,-1.022272E-1,-2.7446806E-2,4.3125E1,2.0016002E2,-4.94907E-1,7.410638E-1,-7.3503754E2,-1.80225E2,-4.1577446E1,4.536375E2,-3.3577676E2,-4.8943752E1],"split_indices":[0,3,0,0,0,3,0,2,0,1,0,0,0,3,0,0,0,0,0,0,0],"split_type":[0,0,0,0,0,0,0,0,0,0,0,0,0,0,0,0,0,0,0,0,0],"sum_hessian":[2.8E1,2.7E1,1E0,2.1E1,6E0,2E1,1E0,5E0,1E0,1.8E1,2E0,1E0,4E0,1.3E1,5E0,1E0,1E0,1.1E1,2E0,3E0,2E0],"tree_param":{"num_deleted":"0","num_feature":"4","num_nodes":"21","size_leaf_vector":"1"}},{"base_weights":[8.0759894E2,1.6390605E2,2.8246501E3,-1.0570132E2,1.1700834E3,2.2646983E2,-4.8865802E2,-1.305E2,5.559E2,-2.364314E2,1.3271055E3,-1.0669626E3,4.187E2,-4.7381252E1,-1.134375E1,3.449304E2,-8.2030316E2,4.621422E2,1.0305E2,-1.5938965E2,-1.7077949E3,1.6065001E2,4.87E1,-2.4077304E2,3.1573404E2,-3.4756818E2,1.6795627E2,-1.4905196E2,-5.8375006E2],"categories":[],"categories_nodes":[],"categories_segments":[],"categories_sizes":[],"default_left":[0,0,0,0,0,0,0,0,0,0,0,0,0,0,0,0,0,0,0,0,0,0,0,0,0,0,0,0,0],"id":36,"left_children":[1,3,-1,5,7,9,11,13,-1,15,17,19,21,-1,-1,23,-1,-1,-1,25,27,-1,-1,-1,-1,-1,-1,-1,-1],"loss_changes":[1.5914123E8,7.7193185E6,0E0,3.0364312E6,5.570957E6,6.937082E6,6.21876E6,1.6573281E3,0E0,1.5465066E7,3.10329E5,3.7990095E6,6.2788688E4,0E0,0E0,8.151591E6,0E0,0E0,0E0,3.5232148E6,1.86249E5,0E0,0E0,0E0,0E0,0E0,0E0,0E0,0E0],"parents":[2147483647,0,0,1,1,3,3,4,4,5,5,6,6,7,7,9,9,10,10,11,11,12,12,15,15,19,19,20,20],"right_children":[2,4,-1,6,8,10,12,14,-1,16,18,20,22,-1,-1,24,-1,-1,-1,26,28,-1,-1,-1,-1,-1,-1,-1,-1],"split_conditions":[2.1499999E0,1.1253191E0,2.8246501E3,-5.397872E-1,-3.563664E-1,-7.959574E-1,3.0717024E-1,1.2534041E0,5.559E2,-5.350109E-1,-5.681931E-1,1.0741723E0,1.0974523E0,-4.7381252E1,-1.134375E1,-6.753744E-1,-8.2030316E2,4.621422E2,1.0305E2,-6.662599E-1,-6.6200644E-1,1.6065001E2,4.87E1,-2.4077304E2,3.1573404E2,-3.4756818E2,1.6795627E2,-1.4905196E2,-5.8375006E2],"split_indices":[0,0,0,0,3,0,3,0,0,3,1,2,3,0,0,3,0,0,0,3,3,0,0,0,0,0,0,0,0],"split_type":[0,0,0,0,0,0,0,0,0,0,0,0,0,0,0,0,0,0,0,0,0,0,0,0,0,0,0,0,0],"sum_hessian":[2.8E1,2.7E1,1E0,2.2E1,5E0,1.2E1,1E1,2E0,3E0,9E0,3E0,6E0,4E0,1E0,1E0,8E0,1E0,2E0,1E0,3E0,3E0,2E0,2E0,3E0,5E0,1E0,2E0,1E0,2E0],"tree_param":{"num_deleted":"0","num_feature":"4","num_nodes":"29","size_leaf_vector":"1"}},{"base_weights":[6.494148E2,1.0096533E2,2.4009001E3,-1.6129413E2,9.107857E2,8.052647E1,-5.159E2,3.7658334E2,6.174E2,-1.437206E2,4.1975E2,4.131E2,2.91E1,8.622419E1,-7.588219E2,2.9400002E1,1.4021251E2,-9.487506E1,2.6217844E2,-6.972586E2,6.40711E1],"categories":[],"categories_nodes":[],"categories_segments":[],"categories_sizes":[],"default_left":[0,0,0,0,0,0,0,0,0,0,0,0,0,0,0,0,0,0,0,0,0],"id":37,"left_children":[1,3,-1,5,7,9,-1,11,-1,13,-1,15,-1,17,19,-1,-1,-1,-1,-1,-1],"loss_changes":[1.16151E8,6.09363E6,0E0,8.429103E6,3.5149035E6,6.115113E6,0E0,2.1186E4,0E0,2.6113368E6,0E0,3.9707562E4,0E0,4.7148095E6,8.107164E6,0E0,0E0,0E0,0E0,0E0,0E0],"parents":[2147483647,0,0,1,1,3,3,4,4,5,5,7,7,9,9,11,11,13,13,14,14],"right_children":[2,4,-1,6,8,10,-1,12,-1,14,-1,16,-1,18,20,-1,-1,-1,-1,-1,-1],"split_conditions":[2.1499999E0,7.368545E-1,2.4009001E3,1.0665093E-1,1.1253191E0,-3.563664E-1,-5.159E2,7.410638E-1,6.174E2,-5.249849E-1,4.1975E2,1.0741723E0,2.91E1,-5.951667E-1,-7.959574E-1,2.9400002E1,1.4021251E2,-9.487506E1,2.6217844E2,-6.972586E2,6.40711E1],"split_indices":[0,3,0,3,0,3,0,0,0,3,0,2,0,3,0,0,0,0,0,0,0],"split_type":[0,0,0,0,0,0,0,0,0,0,0,0,0,0,0,0,0,0,0,0,0],"sum_hessian":[2.8E1,2.7E1,1E0,2.1E1,6E0,1.9E1,2E0,5E0,1E0,1.7E1,2E0,4E0,1E0,1.3E1,4E0,1E0,3E0,9E0,4E0,1E0,3E0],"tree_param":{"num_deleted":"0","num_feature":"4","num_nodes":"21","size_leaf_vector":"1"}},{"base_weights":[5.4618286E2,7.9796524E1,2.0407501E3,-1.1929118E2,8.296667E2,-2.5134987E2,4.1790002E2,2.958E2,5.2485004E2,1.724777E2,-6.9085724E2,3.285E2,2.4750002E1,-1.3011581E2,3.3708908E2,-4.5984378E2,-4.5338046E2,2.4975E1,1.1475001E2,8.833223E1,-5.9266876E2,-2.10909E2,-1.89375E1],"categories":[],"categories_nodes":[],"categories_segments":[],"categories_sizes":[],"default_left":[0,0,0,0,0,0,0,0,0,0,0,0,0,0,0,0,0,0,0,0,0,0,0],"id":38,"left_children":[1,3,-1,5,7,9,-1,11,-1,13,15,17,-1,19,-1,-1,21,-1,-1,-1,-1,-1,-1],"loss_changes":[8.407515E7,4.27909E6,0E0,4.943488E6,2.4289078E6,4.217215E6,0E0,7.7733125E3,0E0,3.5999532E6,1.504446E6,2.1130875E4,0E0,8.416652E6,0E0,0E0,9.298921E5,0E0,0E0,0E0,0E0,0E0,0E0],"parents":[2147483647,0,0,1,1,3,3,4,4,5,5,7,7,9,9,10,10,11,11,13,13,16,16],"right_children":[2,4,-1,6,8,10,-1,12,-1,14,16,18,-1,20,-1,-1,22,-1,-1,-1,-1,-1,-1],"split_conditions":[2.1499999E0,9.513385E-1,2.0407501E3,1.8938297E0,1.1253191E0,-5.397872E-1,4.1790002E2,7.410638E-1,5.2485004E2,-7.959574E-1,-2.7446806E-2,1.0741723E0,2.4750002E1,-5.350109E-1,3.3708908E2,-4.5984378E2,-4.0133134E-1,2.4975E1,1.1475001E2,8.833223E1,-5.9266876E2,-2.10909E2,-1.89375E1],"split_indices":[0,3,0,0,0,0,0,0,0,0,0,2,0,3,0,0,3,0,0,0,0,0,0],"split_type":[0,0,0,0,0,0,0,0,0,0,0,0,0,0,0,0,0,0,0,0,0,0,0],"sum_hessian":[2.8E1,2.7E1,1E0,2.2E1,5E0,2.1E1,1E0,4E0,1E0,1.1E1,1E1,3E0,1E0,9E0,2E0,1E0,9E0,1E0,2E0,8E0,1E0,5E0,4E0],"tree_param":{"num_deleted":"0","num_feature":"4","num_nodes":"23","size_leaf_vector":"1"}},{"base_weights":[4.612913E2,6.4765976E1,1.7346001E3,-1.2184331E2,6.42E2,4.8384865E1,-3.64825E2,2.5333333E2,4.461E2,-1.1063834E2,9.863958E2,2.76E2,2.1E1,-3.2328284E2,9.631089E0,8.867813E1,3.552E2,2.1225E1,9.2887505E1,9.373035E1,-1.402736E2],"categories":[],"categories_nodes":[],"categories_segments":[],"categories_sizes":[],"default_left":[0,0,0,0,0,0,0,0,0,0,0,0,0,0,0,0,0,0,0,0,0],"id":39,"left_children":[1,3,-1,5,7,9,-1,11,-1,13,15,17,-1,-1,19,-1,-1,-1,-1,-1,-1],"loss_changes":[6.0809596E7,3.0943058E6,0E0,4.1567905E6,1.9222565E6,3.0924435E6,0E0,5.6133438E3,0E0,2.1037258E6,5.9533E4,1.26016875E4,0E0,0E0,2.6026E6,0E0,0E0,0E0,0E0,0E0,0E0],"parents":[2147483647,0,0,1,1,3,3,4,4,5,5,7,7,9,9,10,10,11,11,14,14],"right_children":[2,4,-1,6,8,10,-1,12,-1,14,16,18,-1,-1,20,-1,-1,-1,-1,-1,-1],"split_conditions":[2.1499999E0,7.368545E-1,1.7346001E3,1.0665093E-1,1.1253191E0,-3.563664E-1,-3.64825E2,7.410638E-1,4.461E2,-1.1007255E0,4.848936E-1,1.0741723E0,2.1E1,-3.2328284E2,-5.397872E-1,8.867813E1,3.552E2,2.1225E1,9.2887505E1,9.373035E1,-1.402736E2],"split_indices":[0,3,0,3,0,3,0,0,0,1,0,2,0,0,0,0,0,0,0,0,0],"split_type":[0,0,0,0,0,0,0,0,0,0,0,0,0,0,0,0,0,0,0,0,0],"sum_hessian":[2.8E1,2.7E1,1E0,2.1E1,6E0,1.9E1,2E0,5E0,1E0,1.7E1,2E0,4E0,1E0,1E0,1.6E1,1E0,1E0,1E0,3E0,1E1,6E0],"tree_param":{"num_deleted":"0","num_feature":"4","num_nodes":"21","size_leaf_vector":"1"}},{"base_weights":[3.9272925E2,5.5719585E1,1.4743501E3,-6.8738745E2,1.7238792E2,-4.3109796E2,4.147884E1,9.321321E2,2.6416815E1,-7.5633545E1,9.429903E1,-2.7479034E2,5.560464E2,-2.5819995E2,2.1178084E2,3.2281525E2,1.03985245E2,-5.178281E2,9.395157E1],"categories":[],"categories_nodes":[],"categories_segments":[],"categories_sizes":[],"default_left":[0,0,0,0,0,0,0,0,0,0,0,0,0,0,0,0,0,0,0],"id":40,"left_children":[1,3,-1,5,7,-1,9,11,13,-1,-1,-1,-1,-1,15,-1,17,-1,-1],"loss_changes":[4.39187E7,2.5460152E6,0E0,2.2450542E6,2.7478935E6,0E0,3.1956606E5,8.508766E6,3.7998058E6,0E0,0E0,0E0,0E0,0E0,1.6582319E6,0E0,7.431469E6,0E0,0E0],"parents":[2147483647,0,0,1,1,3,3,4,4,6,6,7,7,8,8,14,14,16,16],"right_children":[2,4,-1,6,8,-1,10,12,14,-1,-1,-1,-1,-1,16,-1,18,-1,-1],"split_conditions":[2.1499999E0,-6.753744E-1,1.4743501E3,-1.0521276E0,-6.730046E-1,-4.3109796E2,-1.034159E0,-1.0521276E0,-5.951667E-1,-7.5633545E1,9.429903E1,-2.7479034E2,5.560464E2,-2.5819995E2,-1.0521276E0,3.2281525E2,-7.959574E-1,-5.178281E2,9.395157E1],"split_indices":[0,3,0,0,3,0,1,0,3,0,0,0,0,0,0,0,0,0,0],"split_type":[0,0,0,0,0,0,0,0,0,0,0,0,0,0,0,0,0,0,0],"sum_hessian":[2.8E1,2.7E1,1E0,3E0,2.4E1,1E0,2E0,3E0,2.1E1,1E0,1E0,1E0,2E0,3E0,1.8E1,1E0,1.7E1,1E0,1.6E1],"tree_param":{"num_deleted":"0","num_feature":"4","num_nodes":"19","size_leaf_vector":"1"}},{"base_weights":[3.088357E2,-4.88061E1,3.4246667E3,-1.9758022E2,5.0483334E2,2.8785E2,1.25325E3,4.941413E1,-5.598403E2,1.19E2,3.651E2,-5.842793E2,2.7535593E2,-4.4015393E2,-2.630254E2,6.0225002E1,4.8375E1,-3.6643332E2,3.525716E1,-2.3357184E2,4.5860605E2,2.1272578E2,-5.0319644E2,2.1300001E1,5.15E0,-6.428848E1,8.0154205E1,4.4483713E2,5.163355E0,-3.5023126E2,-5.9375004E1],"categories":[],"categories_nodes":[],"categories_segments":[],"categories_sizes":[],"default_left":[0,0,0,0,0,0,0,0,0,0,0,0,0,0,0,0,0,0,0,0,0,0,0,0,0,0,0,0,0,0,0],"id":41,"left_children":[1,3,5,7,9,-1,-1,11,13,15,-1,17,19,-1,21,-1,23,-1,25,-1,27,-1,29,-1,-1,-1,-1,-1,-1,-1,-1],"loss_changes":[3.2483334E7,2.3236598E6,1.559268E6,1.9961401E6,1.5038429E6,0E0,0E0,2.1653742E6,2.0379012E6,1.9156688E4,0E0,1.6220526E6,2.481517E6,0E0,2.2245935E6,0E0,1.6055205E3,0E0,2.3088644E5,0E0,4.495177E6,0E0,1.1884001E6,0E0,0E0,0E0,0E0,0E0,0E0,0E0,0E0],"parents":[2147483647,0,0,1,1,2,2,3,3,4,4,7,7,8,8,9,9,11,11,12,12,14,14,16,16,18,18,20,20,22,22],"right_children":[2,4,6,8,10,-1,-1,12,14,16,-1,18,20,-1,22,-1,24,-1,26,-1,28,-1,30,-1,-1,-1,-1,-1,-1,-1,-1],"split_conditions":[1.8938297E0,9.513385E-1,2.1499999E0,-5.249849E-1,1.1253191E0,2.8785E2,1.25325E3,-6.753744E-1,-7.959574E-1,1.0974523E0,3.651E2,-1.0521276E0,-1.1007255E0,-4.4015393E2,-6.678723E-1,6.0225002E1,-5.397872E-1,-3.6643332E2,-1.034159E0,-2.3357184E2,-6.730046E-1,2.1272578E2,-2.7446806E-2,2.1300001E1,5.15E0,-6.428848E1,8.0154205E1,4.4483713E2,5.163355E0,-3.5023126E2,-5.9375004E1],"split_indices":[0,3,0,3,0,0,0,3,0,3,0,0,1,0,0,0,0,0,1,0,3,0,0,0,0,0,0,0,0,0,0],"split_type":[0,0,0,0,0,0,0,0,0,0,0,0,0,0,0,0,0,0,0,0,0,0,0,0,0,0,0,0,0,0,0],"sum_hessian":[2.8E1,2.6E1,2E0,2.1E1,5E0,1E0,1E0,1.3E1,8E0,4E0,1E0,3E0,1E1,1E0,7E0,1E0,3E0,1E0,2E0,1E0,9E0,1E0,6E0,1E0,2E0,1E0,1E0,2E0,7E0,1E0,5E0],"tree_param":{"num_deleted":"0","num_feature":"4","num_nodes":"31","size_leaf_vector":"1"}},{"base_weights":[2.5833878E2,-4.5969456E1,2.911E3,-1.9081787E2,3.9514285E2,2.4465001E2,1.0653E3,-6.897633E1,-2.696625E2,1.16166664E2,3.1035E2,-4.9663757E2,4.225E1,5.35E1,4.05E1,-3.1146835E2,2.9968424E1,4.6527994E2,-1.9233452E2,1.8075E1,4.15E0,-5.4645267E1,6.813106E1,-1.98536E2,2.4691519E2,-3.741305E2,1.1355703E1],"categories":[],"categories_nodes":[],"categories_segments":[],"categories_sizes":[],"default_left":[0,0,0,0,0,0,0,0,0,0,0,0,0,0,0,0,0,0,0,0,0,0,0,0,0,0,0],"id":42,"left_children":[1,3,5,7,9,-1,-1,11,-1,13,-1,15,17,-1,19,-1,21,23,25,-1,-1,-1,-1,-1,-1,-1,-1],"loss_changes":[2.354339E7,1.8005496E6,1.12752E6,1.749685E6,1.1283836E6,0E0,0E0,9.2475956E5,0E0,2.1001172E4,0E0,1.1719325E6,1.6772699E6,0E0,1.2732085E3,0E0,1.668156E5,2.964072E6,2.7179342E6,0E0,0E0,0E0,0E0,0E0,0E0,0E0,0E0],"parents":[2147483647,0,0,1,1,2,2,3,3,4,4,7,7,9,9,11,11,12,12,14,14,16,16,17,17,18,18],"right_children":[2,4,6,8,10,-1,-1,12,-1,14,-1,16,18,-1,20,-1,22,24,26,-1,-1,-1,-1,-1,-1,-1,-1],"split_conditions":[1.8938297E0,7.368545E-1,2.1499999E0,7.5956054E-2,1.1253191E0,2.4465001E2,1.0653E3,-6.753744E-1,-2.696625E2,1.0974523E0,3.1035E2,-1.0521276E0,-9.6759236E-1,5.35E1,-5.397872E-1,-3.1146835E2,-1.034159E0,-1.1007255E0,-7.959574E-1,1.8075E1,4.15E0,-5.4645267E1,6.813106E1,-1.98536E2,2.4691519E2,-3.741305E2,1.1355703E1],"split_indices":[0,3,0,3,0,0,0,3,0,3,0,0,1,0,0,0,1,1,0,0,0,0,0,0,0,0,0],"split_type":[0,0,0,0,0,0,0,0,0,0,0,0,0,0,0,0,0,0,0,0,0,0,0,0,0,0,0],"sum_hessian":[2.8E1,2.6E1,2E0,2E1,6E0,1E0,1E0,1.8E1,2E0,5E0,1E0,3E0,1.5E1,2E0,3E0,1E0,2E0,5E0,1E1,1E0,2E0,1E0,1E0,1E0,4E0,1E0,9E0],"tree_param":{"num_deleted":"0","num_feature":"4","num_nodes":"27","size_leaf_vector":"1"}},{"base_weights":[2.0893532E2,-5.0532444E1,2.4745E3,-1.7558932E2,3.3185715E2,2.07975E2,9.0555005E2,-8.051979E1,-7.191667E2,9.4E1,2.6385E2,-2.701927E2,1.1720508E2,-2.5725E2,-6.6375E1,4.2800003E1,3.4E1,-2.8900247E2,2.3512207E1,5.0080704E2,-2.2199739E2,1.5375001E1,3.3500001E0,1.8847711E2,-2.2148907E2,2.4638477E2,4.01875E0,-3.1801172E2,4.7285625E1],"categories":[],"categories_nodes":[],"categories_segments":[],"categories_sizes":[],"default_left":[0,0,0,0,0,0,0,0,0,0,0,0,0,0,0,0,0,0,0,0,0,0,0,0,0,0,0,0,0],"id":43,"left_children":[1,3,5,7,9,-1,-1,11,13,15,-1,17,19,-1,-1,-1,21,-1,23,25,27,-1,-1,-1,-1,-1,-1,-1,-1],"loss_changes":[1.7172432E7,1.3494228E6,8.14426E5,1.0273234E6,8.291524E5,0E0,0E0,7.442258E5,1.6913625E4,1.2669328E4,0E0,2.058462E6,1.4123652E6,0E0,0E0,0E0,1.0032085E3,0E0,4.149441E6,7.700151E5,2.075887E6,0E0,0E0,0E0,0E0,0E0,0E0,0E0,0E0],"parents":[2147483647,0,0,1,1,2,2,3,3,4,4,7,7,8,8,9,9,11,11,12,12,16,16,18,18,19,19,20,20],"right_children":[2,4,6,8,10,-1,-1,12,14,16,-1,18,20,-1,-1,-1,22,-1,24,26,28,-1,-1,-1,-1,-1,-1,-1,-1],"split_conditions":[1.8938297E0,7.368545E-1,2.1499999E0,7.5956054E-2,1.1253191E0,2.07975E2,9.0555005E2,-5.951667E-1,-2.7446806E-2,1.0974523E0,2.6385E2,-1.0521276E0,-5.249849E-1,-2.5725E2,-6.6375E1,4.2800003E1,-5.397872E-1,-2.8900247E2,-6.730046E-1,-5.397872E-1,-7.959574E-1,1.5375001E1,3.3500001E0,1.8847711E2,-2.2148907E2,2.4638477E2,4.01875E0,-3.1801172E2,4.7285625E1],"split_indices":[0,3,0,3,0,0,0,3,0,3,0,0,3,0,0,0,0,0,3,0,0,0,0,0,0,0,0,0,0],"split_type":[0,0,0,0,0,0,0,0,0,0,0,0,0,0,0,0,0,0,0,0,0,0,0,0,0,0,0,0,0],"sum_hessian":[2.8E1,2.6E1,2E0,2E1,6E0,1E0,1E0,1.8E1,2E0,5E0,1E0,9E0,9E0,1E0,1E0,2E0,3E0,2E0,7E0,4E0,5E0,1E0,2E0,4E0,3E0,2E0,2E0,1E0,4E0],"tree_param":{"num_deleted":"0","num_feature":"4","num_nodes":"29","size_leaf_vector":"1"}},{"base_weights":[1.7286281E2,-4.8017723E1,2.1031667E3,-1.5461803E2,2.7864285E2,1.7677501E2,7.6965E2,-7.438045E1,-6.1125E2,7.5916664E1,2.2425002E2,-4.4412988E2,2.2705688E1,-2.186625E2,-5.64E1,3.42E1,2.8375E1,-1.9741188E2,2.963987E1,2.1350514E2,-3.308776E2,1.305E1,2.65E0,-1.2540513E2,9.553773E1,-1.15365944E2,-9.375E0],"categories":[],"categories_nodes":[],"categories_segments":[],"categories_sizes":[],"default_left":[0,0,0,0,0,0,0,0,0,0,0,0,0,0,0,0,0,0,0,0,0,0,0,0,0,0,0],"id":44,"left_children":[1,3,5,7,9,-1,-1,11,13,15,-1,17,19,-1,-1,-1,21,-1,-1,23,25,-1,-1,-1,-1,-1,-1],"loss_changes":[1.246562E7,9.832803E5,5.8808E5,7.239549E5,6.085996E5,0E0,0E0,6.921376E5,1.2325875E4,7.6285195E3,0E0,5.2956544E5,1.1500601E6,0E0,0E0,0E0,7.9802075E2,0E0,0E0,8.622095E5,8.447875E4,0E0,0E0,0E0,0E0,0E0,0E0],"parents":[2147483647,0,0,1,1,2,2,3,3,4,4,7,7,8,8,9,9,11,11,12,12,16,16,19,19,20,20],"right_children":[2,4,6,8,10,-1,-1,12,14,16,-1,18,20,-1,-1,-1,22,-1,-1,24,26,-1,-1,-1,-1,-1,-1],"split_conditions":[1.8938297E0,7.368545E-1,2.1499999E0,7.5956054E-2,1.1253191E0,1.7677501E2,7.6965E2,-6.753744E-1,-2.7446806E-2,1.0974523E0,2.2425002E2,-1.034159E0,-1.022272E-1,-2.186625E2,-5.64E1,3.42E1,-5.397872E-1,-1.9741188E2,2.963987E1,-1.1007255E0,1.2534041E0,1.305E1,2.65E0,-1.2540513E2,9.553773E1,-1.15365944E2,-9.375E0],"split_indices":[0,3,0,3,0,0,0,3,0,3,0,1,1,0,0,0,0,0,0,1,0,0,0,0,0,0,0],"split_type":[0,0,0,0,0,0,0,0,0,0,0,0,0,0,0,0,0,0,0,0,0,0,0,0,0,0,0],"sum_hessian":[2.8E1,2.6E1,2E0,2E1,6E0,1E0,1E0,1.8E1,2E0,5E0,1E0,3E0,1.5E1,1E0,1E0,2E0,3E0,2E0,1E0,1E1,5E0,1E0,2E0,1E0,9E0,4E0,1E0],"tree_param":{"num_deleted":"0","num_feature":"4","num_nodes":"27","size_leaf_vector":"1"}},{"base_weights":[1.4250885E2,-4.5546043E1,1.7875E3,-1.3667825E2,2.3435715E2,1.50225E2,6.5415E2,3.8129883E0,-3.6545312E2,6.1583332E1,1.9065001E2,-1.9895557E2,4.085875E2,-2.8463907E2,-1.465759E2,2.7400002E1,2.3875E1,-4.1735617E2,2.3298438E2,1.6661719E2,-2.679375E1,1.9846875E2,-2.0183751E2,1.11E1,2.15E0,-1.5447263E2,2.5193922E1,2.861754E2,-9.758984E1,1.3649689E2,-3.72625E1],"categories":[],"categories_nodes":[],"categories_segments":[],"categories_sizes":[],"default_left":[0,0,0,0,0,0,0,0,0,0,0,0,0,0,0,0,0,0,0,0,0,0,0,0,0,0,0,0,0,0,0],"id":45,"left_children":[1,3,5,7,9,-1,-1,11,13,15,-1,17,19,-1,21,-1,23,25,27,-1,-1,29,-1,-1,-1,-1,-1,-1,-1,-1,-1],"loss_changes":[9.052524E6,7.207528E5,4.25192E5,6.7635156E5,4.4601266E5,0E0,0E0,1.2303485E6,8.823746E5,4.5503555E3,0E0,1.0405968E6,4.1506975E5,0E0,1.4045036E6,0E0,6.1202075E2,3.855885E5,1.9202514E6,0E0,0E0,4.7038047E5,0E0,0E0,0E0,0E0,0E0,0E0,0E0,0E0,0E0],"parents":[2147483647,0,0,1,1,2,2,3,3,4,4,7,7,8,8,9,9,11,11,12,12,14,14,16,16,17,17,18,18,21,21],"right_children":[2,4,6,8,10,-1,-1,12,14,16,-1,18,20,-1,22,-1,24,26,28,-1,-1,30,-1,-1,-1,-1,-1,-1,-1,-1,-1],"split_conditions":[1.8938297E0,7.368545E-1,2.1499999E0,-5.249849E-1,1.1253191E0,1.50225E2,6.5415E2,-5.951667E-1,-7.959574E-1,1.0974523E0,1.9065001E2,-9.2404246E-1,7.410638E-1,-2.8463907E2,1.0741723E0,2.7400002E1,-5.397872E-1,-9.6759236E-1,-7.959574E-1,1.6661719E2,-2.679375E1,4.848936E-1,-2.0183751E2,1.11E1,2.15E0,-1.5447263E2,2.5193922E1,2.861754E2,-9.758984E1,1.3649689E2,-3.72625E1],"split_indices":[0,3,0,3,0,0,0,3,0,3,0,0,0,0,2,0,0,1,0,0,0,0,0,0,0,0,0,0,0,0,0],"split_type":[0,0,0,0,0,0,0,0,0,0,0,0,0,0,0,0,0,0,0,0,0,0,0,0,0,0,0,0,0,0,0],"sum_hessian":[2.8E1,2.6E1,2E0,2E1,6E0,1E0,1E0,1.3E1,7E0,5E0,1E0,9E0,4E0,1E0,6E0,2E0,3E0,6E0,3E0,3E0,1E0,4E0,2E0,1E0,2E0,5E0,1E0,1E0,2E0,2E0,2E0],"tree_param":{"num_deleted":"0","num_feature":"4","num_nodes":"31","size_leaf_vector":"1"}},{"base_weights":[1.2899854E2,-3.027935E1,1.5195E3,-9.825193E1,2.24E2,1.27725006E2,5.5605005E2,1.6893171E1,-2.6644965E2,5.28E1,1.62E2,-1.3333784E2,3.1397656E2,-2.4194298E2,-9.813672E1,2.7525002E1,2.0125E1,9.7341866E1,-1.5110786E2,1.2912715E2,-2.2771875E1,1.372172E2,-2.4283928E2,9.450001E0,1.7500001E0,-1.6802563E2,1.4169897E2,-9.051563E0,-1.18439064E2],"categories":[],"categories_nodes":[],"categories_segments":[],"categories_sizes":[],"default_left":[0,0,0,0,0,0,0,0,0,0,0,0,0,0,0,0,0,0,0,0,0,0,0,0,0,0,0,0,0],"id":46,"left_children":[1,3,5,7,9,-1,-1,11,13,15,-1,17,19,-1,21,-1,23,25,-1,-1,-1,-1,27,-1,-1,-1,-1,-1,-1],"loss_changes":[6.468817E6,4.886771E5,3.0681E5,4.305783E5,2.960832E5,0E0,0E0,6.667009E5,7.388966E5,4.5169873E3,0E0,9.033643E5,2.5967578E5,0E0,7.541623E5,0E0,4.6652075E2,1.9902366E6,0E0,0E0,0E0,0E0,2.1430325E5,0E0,0E0,0E0,0E0,0E0,0E0],"parents":[2147483647,0,0,1,1,2,2,3,3,4,4,7,7,8,8,9,9,11,11,12,12,14,14,16,16,17,17,22,22],"right_children":[2,4,6,8,10,-1,-1,12,14,16,-1,18,20,-1,22,-1,24,26,-1,-1,-1,-1,28,-1,-1,-1,-1,-1,-1],"split_conditions":[1.8938297E0,9.513385E-1,2.1499999E0,-5.249849E-1,1.1253191E0,1.27725006E2,5.5605005E2,-5.951667E-1,-7.959574E-1,1.0974523E0,1.62E2,-6.730046E-1,7.410638E-1,-2.4194298E2,-6.678723E-1,2.7525002E1,-5.397872E-1,-1.0521276E0,-1.5110786E2,1.2912715E2,-2.2771875E1,1.372172E2,1.0741723E0,9.450001E0,1.7500001E0,-1.6802563E2,1.4169897E2,-9.051563E0,-1.18439064E2],"split_indices":[0,3,0,3,0,0,0,3,0,3,0,3,0,0,0,0,0,0,0,0,0,0,2,0,0,0,0,0,0],"split_type":[0,0,0,0,0,0,0,0,0,0,0,0,0,0,0,0,0,0,0,0,0,0,0,0,0,0,0,0,0],"sum_hessian":[2.8E1,2.6E1,2E0,2.1E1,5E0,1E0,1E0,1.3E1,8E0,4E0,1E0,9E0,4E0,1E0,7E0,1E0,3E0,6E0,3E0,3E0,1E0,1E0,6E0,1E0,2E0,2E0,4E0,3E0,3E0],"tree_param":{"num_deleted":"0","num_feature":"4","num_nodes":"29","size_leaf_vector":"1"}},{"base_weights":[1.10332E2,-2.501378E1,1.2916666E3,-9.382724E1,1.85E2,1.08600006E2,4.7265002E2,6.746861E0,-2.5810352E2,6.2833332E1,1.3770001E2,-3.10739E2,1.2158292E2,-2.0565236E2,-9.911607E1,3.1000002E1,1.675E1,-1.2440225E2,1.5996094E-1,4.2340088E2,-4.4523926E1,1.367875E2,-1.3777501E2,8.025001E0,1.35E0,-5.821963E1,2.0817345E2,-1.17108406E2,7.231524E1,9.6381256E1,-2.7987501E1],"categories":[],"categories_nodes":[],"categories_segments":[],"categories_sizes":[],"default_left":[0,0,0,0,0,0,0,0,0,0,0,0,0,0,0,0,0,0,0,0,0,0,0,0,0,0,0,0,0,0,0],"id":47,"left_children":[1,3,5,7,9,-1,-1,11,13,15,-1,17,19,-1,21,-1,23,-1,-1,25,27,29,-1,-1,-1,-1,-1,-1,-1,-1,-1],"loss_changes":[4.6690805E6,4.0755594E5,2.2128E5,3.4870212E5,2.0547516E5,0E0,0E0,5.4820406E5,4.756705E5,9.46742E3,0E0,1.2962959E5,5.7032575E5,0E0,6.575179E5,0E0,3.69625E2,0E0,0E0,8.0278894E5,8.841962E5,2.4220075E5,0E0,0E0,0E0,0E0,0E0,0E0,0E0,0E0,0E0],"parents":[2147483647,0,0,1,1,2,2,3,3,4,4,7,7,8,8,9,9,11,11,12,12,14,14,16,16,19,19,20,20,21,21],"right_children":[2,4,6,8,10,-1,-1,12,14,16,-1,18,20,-1,22,-1,24,-1,-1,26,28,30,-1,-1,-1,-1,-1,-1,-1,-1,-1],"split_conditions":[1.8938297E0,7.368545E-1,2.1499999E0,-5.249849E-1,1.1253191E0,1.08600006E2,4.7265002E2,-6.753744E-1,-7.959574E-1,1.0974523E0,1.3770001E2,-1.034159E0,-6.730046E-1,-2.0565236E2,1.0741723E0,3.1000002E1,-5.397872E-1,-1.2440225E2,1.5996094E-1,-1.0521276E0,-5.951667E-1,4.848936E-1,-1.3777501E2,8.025001E0,1.35E0,-5.821963E1,2.0817345E2,-1.17108406E2,7.231524E1,9.6381256E1,-2.7987501E1],"split_indices":[0,3,0,3,0,0,0,3,0,3,0,1,3,0,2,0,0,0,0,0,3,0,0,0,0,0,0,0,0,0,0],"split_type":[0,0,0,0,0,0,0,0,0,0,0,0,0,0,0,0,0,0,0,0,0,0,0,0,0,0,0,0,0,0,0],"sum_hessian":[2.8E1,2.6E1,2E0,2E1,6E0,1E0,1E0,1.3E1,7E0,5E0,1E0,3E0,1E1,1E0,6E0,2E0,3E0,2E0,1E0,3E0,7E0,4E0,2E0,1E0,2E0,1E0,2E0,3E0,4E0,2E0,2E0],"tree_param":{"num_deleted":"0","num_feature":"4","num_nodes":"31","size_leaf_vector":"1"}},{"base_weights":[9.324569E1,-2.1828703E1,1.0978334E3,-7.9684525E1,1.5485715E2,9.2325005E1,4.017E2,-3.407237E1,-1.02600006E2,5.0666668E1,1.1700001E2,-2.4857788E2,2.1683533E1,2.4800001E1,1.4E1,-1.24750786E2,-5.4213215E1,3.338689E2,-7.6041466E1,6.8250003E0,1.0500001E0,-2.4531885E1,1.3593751E-1,-4.948667E1,1.6653868E2,1.3008282E2,-4.6393948E1],"categories":[],"categories_nodes":[],"categories_segments":[],"categories_sizes":[],"default_left":[0,0,0,0,0,0,0,0,0,0,0,0,0,0,0,0,0,0,0,0,0,0,0,0,0,0,0],"id":48,"left_children":[1,3,5,7,9,-1,-1,11,-1,13,-1,15,17,-1,19,-1,21,23,25,-1,-1,-1,-1,-1,-1,-1,-1],"loss_changes":[3.3764312E6,2.8834197E5,1.59548E5,2.396075E5,1.5173752E5,0E0,0E0,2.3262906E5,0E0,5.882667E3,0E0,1.0749244E5,5.135209E5,0E0,2.87875E2,0E0,4.556823E3,5.3305125E5,5.878507E5,0E0,0E0,0E0,0E0,0E0,0E0,0E0,0E0],"parents":[2147483647,0,0,1,1,2,2,3,3,4,4,7,7,9,9,11,11,12,12,14,14,16,16,17,17,18,18],"right_children":[2,4,6,8,10,-1,-1,12,-1,14,-1,16,18,-1,20,-1,22,24,26,-1,-1,-1,-1,-1,-1,-1,-1],"split_conditions":[1.8938297E0,7.368545E-1,2.1499999E0,7.5956054E-2,1.1253191E0,9.2325005E1,4.017E2,-6.753744E-1,-1.02600006E2,1.0974523E0,1.1700001E2,-1.0521276E0,-6.730046E-1,2.4800001E1,-5.397872E-1,-1.24750786E2,-1.034159E0,-1.0521276E0,-1.0521276E0,6.8250003E0,1.0500001E0,-2.4531885E1,1.3593751E-1,-4.948667E1,1.6653868E2,1.3008282E2,-4.6393948E1],"split_indices":[0,3,0,3,0,0,0,3,0,3,0,0,3,0,0,0,1,0,0,0,0,0,0,0,0,0,0],"split_type":[0,0,0,0,0,0,0,0,0,0,0,0,0,0,0,0,0,0,0,0,0,0,0,0,0,0,0],"sum_hessian":[2.8E1,2.6E1,2E0,2E1,6E0,1E0,1E0,1.8E1,2E0,5E0,1E0,3E0,1.5E1,2E0,3E0,1E0,2E0,3E0,1.2E1,1E0,2E0,1E0,1E0,1E0,2E0,1E0,1.1E1],"tree_param":{"num_deleted":"0","num_feature":"4","num_nodes":"27","size_leaf_vector":"1"}},{"base_weights":[8.56707E1,-1.1649993E1,9.33E2,-2.1129102E2,2.2108927E1,7.8450005E1,3.4140002E2,-1.0603814E2,-4.6081055E1,2.6297095E2,-2.482236E1,-2.085205E1,1.1557618E-1,-4.206372E1,4.4410287E2,-3.2531934E2,4.3333767E1,3.4059082E1,1.6578722E2,1.1057051E2,-2.0384142E2,9.50625E1,-1.0663574E1,-3.2358517E1,3.8914284E1],"categories":[],"categories_nodes":[],"categories_segments":[],"categories_sizes":[],"default_left":[0,0,0,0,0,0,0,0,0,0,0,0,0,0,0,0,0,0,0,0,0,0,0,0,0],"id":49,"left_children":[1,3,5,7,9,-1,-1,-1,11,13,15,-1,-1,-1,17,19,21,-1,-1,-1,-1,-1,23,-1,-1],"loss_changes":[2.402287E6,1.8664239E5,1.153855E5,7.766339E4,2.778227E5,0E0,0E0,0E0,3.2923066E3,3.5438625E5,4.4419225E5,0E0,0E0,0E0,4.4882812E4,1.2333985E6,2.6924797E5,0E0,0E0,0E0,0E0,0E0,2.3230267E5,0E0,0E0],"parents":[2147483647,0,0,1,1,2,2,3,3,4,4,8,8,9,9,10,10,14,14,15,15,16,16,22,22],"right_children":[2,4,6,8,10,-1,-1,-1,12,14,16,-1,-1,-1,18,20,22,-1,-1,-1,-1,-1,24,-1,-1],"split_conditions":[1.8938297E0,-6.753744E-1,2.1499999E0,-1.0521276E0,-6.730046E-1,7.8450005E1,3.4140002E2,-1.0603814E2,-1.034159E0,-1.0521276E0,-7.959574E-1,-2.085205E1,1.1557618E-1,-4.206372E1,-9.2404246E-1,-1.0521276E0,-5.681931E-1,3.4059082E1,1.6578722E2,1.1057051E2,-2.0384142E2,9.50625E1,7.368545E-1,-3.2358517E1,3.8914284E1],"split_indices":[0,3,0,0,3,0,0,0,1,0,0,0,0,0,0,0,1,0,0,0,0,0,3,0,0],"split_type":[0,0,0,0,0,0,0,0,0,0,0,0,0,0,0,0,0,0,0,0,0,0,0,0,0],"sum_hessian":[2.8E1,2.6E1,2E0,3E0,2.3E1,1E0,1E0,1E0,2E0,3E0,2E1,1E0,1E0,1E0,2E0,3E0,1.7E1,1E0,1E0,1E0,2E0,2E0,1.5E1,9E0,6E0],"tree_param":{"num_deleted":"0","num_feature":"4","num_nodes":"25","size_leaf_vector":"1"}},{"base_weights":[7.580693E1,-6.707375E0,7.931667E2,-1.7959753E2,2.2387125E1,6.6675E1,2.9025E2,-9.013242E1,-3.916911E1,2.2352539E2,-1.6990978E1,-1.7724318E1,9.821778E-2,-3.57542E1,3.7748764E2,-2.5104053E2,3.5963974E1,2.8950294E1,1.4091914E2,9.398496E1,-1.6307286E2,-7.505977E1,6.751471E1,4.6158752E1,-1.4657813E1],"categories":[],"categories_nodes":[],"categories_segments":[],"categories_sizes":[],"default_left":[0,0,0,0,0,0,0,0,0,0,0,0,0,0,0,0,0,0,0,0,0,0,0,0,0],"id":50,"left_children":[1,3,5,7,9,-1,-1,-1,11,13,15,-1,-1,-1,17,19,21,-1,-1,-1,-1,-1,23,-1,-1],"loss_changes":[1.7219008E6,1.398348E5,8.3562625E4,5.611164E4,1.9388856E5,0E0,0E0,0E0,2.3786992E3,2.560444E5,2.6930416E5,0E0,0E0,0E0,3.2427562E4,8.306325E5,1.7940797E5,0E0,0E0,0E0,0E0,0E0,1.7834461E5,0E0,0E0],"parents":[2147483647,0,0,1,1,2,2,3,3,4,4,8,8,9,9,10,10,14,14,15,15,16,16,22,22],"right_children":[2,4,6,8,10,-1,-1,-1,12,14,16,-1,-1,-1,18,20,22,-1,-1,-1,-1,-1,24,-1,-1],"split_conditions":[1.8938297E0,-6.753744E-1,2.1499999E0,-1.0521276E0,-6.730046E-1,6.6675E1,2.9025E2,-9.013242E1,-1.034159E0,-1.0521276E0,-7.959574E-1,-1.7724318E1,9.821778E-2,-3.57542E1,-9.2404246E-1,-1.0521276E0,-6.662599E-1,2.8950294E1,1.4091914E2,9.398496E1,-1.6307286E2,-7.505977E1,1.0741723E0,4.6158752E1,-1.4657813E1],"split_indices":[0,3,0,0,3,0,0,0,1,0,0,0,0,0,0,0,3,0,0,0,0,0,2,0,0],"split_type":[0,0,0,0,0,0,0,0,0,0,0,0,0,0,0,0,0,0,0,0,0,0,0,0,0],"sum_hessian":[2.8E1,2.6E1,2E0,3E0,2.3E1,1E0,1E0,1E0,2E0,3E0,2E1,1E0,1E0,1E0,2E0,3E0,1.7E1,1E0,1E0,1E0,2E0,1E0,1.6E1,9E0,7E0],"tree_param":{"num_deleted":"0","num_feature":"4","num_nodes":"25","size_leaf_vector":"1"}},{"base_weights":[6.2404716E1,-7.8986363E0,6.743333E2,-1.5265784E2,1.6557007E1,5.67E1,2.4675002E2,-7.661258E1,-3.329362E1,1.8999634E2,-1.7267485E1,-1.5065625E1,8.3496094E-2,-3.0391115E1,3.2086426E2,7.988731E1,-4.475996E1,2.4607765E1,1.1978116E2,-1.3045782E2,2.2743273E1,8.795391E1,-3.123185E0],"categories":[],"categories_nodes":[],"categories_segments":[],"categories_sizes":[],"default_left":[0,0,0,0,0,0,0,0,0,0,0,0,0,0,0,0,0,0,0,0,0,0,0],"id":51,"left_children":[1,3,5,7,9,-1,-1,-1,11,13,15,-1,-1,-1,17,-1,19,-1,-1,-1,21,-1,-1],"loss_changes":[1.2529248E6,9.811241E4,6.0278125E4,4.0540758E4,1.4407669E5,0E0,0E0,0E0,1.718605E3,1.8499206E5,1.756294E5,0E0,0E0,0E0,2.342875E4,0E0,5.365496E5,0E0,0E0,0E0,1.6444052E5,0E0,0E0],"parents":[2147483647,0,0,1,1,2,2,3,3,4,4,8,8,9,9,10,10,14,14,16,16,20,20],"right_children":[2,4,6,8,10,-1,-1,-1,12,14,16,-1,-1,-1,18,-1,20,-1,-1,-1,22,-1,-1],"split_conditions":[1.8938297E0,-6.753744E-1,2.1499999E0,-1.0521276E0,-6.730046E-1,5.67E1,2.4675002E2,-7.661258E1,-1.034159E0,-1.0521276E0,-1.0521276E0,-1.5065625E1,8.3496094E-2,-3.0391115E1,-9.2404246E-1,7.988731E1,-7.959574E-1,2.4607765E1,1.1978116E2,-1.3045782E2,-6.678723E-1,8.795391E1,-3.123185E0],"split_indices":[0,3,0,0,3,0,0,0,1,0,0,0,0,0,0,0,0,0,0,0,0,0,0],"split_type":[0,0,0,0,0,0,0,0,0,0,0,0,0,0,0,0,0,0,0,0,0,0,0],"sum_hessian":[2.8E1,2.6E1,2E0,3E0,2.3E1,1E0,1E0,1E0,2E0,3E0,2E1,1E0,1E0,1E0,2E0,1E0,1.9E1,1E0,1E0,2E0,1.7E1,1E0,1.6E1],"tree_param":{"num_deleted":"0","num_feature":"4","num_nodes":"23","size_leaf_vector":"1"}},{"base_weights":[5.6069992E1,-3.4618597E0,5.731667E2,-3.5784294E1,9.4E1,4.8225002E1,2.0970001E2,1.5673571E0,-2.6041666E2,1.2833333E1,8.715E1,4.830765E1,-1.07754555E2,-9.42375E1,-2.295E1,1.5500001E1,-1.95E1,-4.64021E1,2.2806563E2,-5.8790237E1,-1.465625E1,2.5500002E0,-3.1666666E1,5.252425E0,-9.323907E1,7.610742E1,1.8834375E1,1.660625E1,-3.3703125E1,-1.155E1,-2.7E0],"categories":[],"categories_nodes":[],"categories_segments":[],"categories_sizes":[],"default_left":[0,0,0,0,0,0,0,0,0,0,0,0,0,0,0,0,0,0,0,0,0,0,0,0,0,0,0,0,0,0,0],"id":52,"left_children":[1,3,5,7,9,-1,-1,11,13,15,-1,17,19,-1,-1,-1,21,23,25,-1,27,-1,29,-1,-1,-1,-1,-1,-1,-1,-1],"loss_changes":[8.947121E5,8.841926E4,4.3323062E4,1.7660636E5,1.0791667E5,0E0,0E0,1.0229041E5,5.6030156E3,8.541167E3,0E0,2.489304E5,4.640267E4,0E0,0E0,0E0,1.6318333E3,1.7441664E5,5.250625E3,0E0,3.3575266E4,0E0,1.1816675E2,0E0,0E0,0E0,0E0,0E0,0E0,0E0,0E0],"parents":[2147483647,0,0,1,1,2,2,3,3,4,4,7,7,8,8,9,9,11,11,12,12,16,16,17,17,18,18,20,20,22,22],"right_children":[2,4,6,8,10,-1,-1,12,14,16,-1,18,20,-1,-1,-1,22,24,26,-1,28,-1,30,-1,-1,-1,-1,-1,-1,-1,-1],"split_conditions":[1.8938297E0,7.368545E-1,2.1499999E0,7.5956054E-2,1.1253191E0,4.8225002E1,2.0970001E2,-1.022272E-1,-2.7446806E-2,1.0974523E0,8.715E1,-7.959574E-1,-5.325044E-1,-9.42375E1,-2.295E1,1.5500001E1,-5.397872E-1,-5.350109E-1,-4.6984208E-1,-5.8790237E1,1.0741723E0,2.5500002E0,7.410638E-1,5.252425E0,-9.323907E1,7.610742E1,1.8834375E1,1.660625E1,-3.3703125E1,-1.155E1,-2.7E0],"split_indices":[0,3,0,3,0,0,0,1,0,3,0,0,3,0,0,0,0,3,3,0,2,0,0,0,0,0,0,0,0,0,0],"split_type":[0,0,0,0,0,0,0,0,0,0,0,0,0,0,0,0,0,0,0,0,0,0,0,0,0,0,0,0,0,0,0],"sum_hessian":[2.8E1,2.6E1,2E0,2E1,6E0,1E0,1E0,1.8E1,2E0,5E0,1E0,1.3E1,5E0,1E0,1E0,2E0,3E0,9E0,4E0,2E0,3E0,1E0,2E0,8E0,1E0,3E0,1E0,2E0,1E0,1E0,1E0],"tree_param":{"num_deleted":"0","num_feature":"4","num_nodes":"31","size_leaf_vector":"1"}},{"base_weights":[4.4858414E1,-5.9483685E0,4.8716666E2,-1.3369836E2,1.55911455E1,4.1025E1,1.7820001E2,-6.590852E1,-3.1801107E1,1.575581E2,-1.21926155E1,-1.3593604E1,-7.1689457E-1,-2.6620167E1,2.692334E2,6.711621E1,-3.5174316E1,2.0128859E1,1.0102618E2,-9.556856E1,1.4011067E1,6.3344532E1,-3.0017235E0],"categories":[],"categories_nodes":[],"categories_segments":[],"categories_sizes":[],"default_left":[0,0,0,0,0,0,0,0,0,0,0,0,0,0,0,0,0,0,0,0,0,0,0],"id":53,"left_children":[1,3,5,7,9,-1,-1,-1,11,13,15,-1,-1,-1,17,-1,19,-1,-1,-1,21,-1,-1],"loss_changes":[6.545933E5,7.637967E4,3.1079062E4,2.8064766E4,9.658608E4,0E0,0E0,0E0,1.0838464E3,1.3390906E5,1.21724695E5,0E0,0E0,0E0,1.8350312E4,0E0,2.832339E5,0E0,0E0,0E0,8.73357E4,0E0,0E0],"parents":[2147483647,0,0,1,1,2,2,3,3,4,4,8,8,9,9,10,10,14,14,16,16,20,20],"right_children":[2,4,6,8,10,-1,-1,-1,12,14,16,-1,-1,-1,18,-1,20,-1,-1,-1,22,-1,-1],"split_conditions":[1.8938297E0,-6.753744E-1,2.1499999E0,-1.0521276E0,-6.730046E-1,4.1025E1,1.7820001E2,-6.590852E1,-1.034159E0,-1.0521276E0,-1.0521276E0,-1.3593604E1,-7.1689457E-1,-2.6620167E1,-9.2404246E-1,6.711621E1,-7.959574E-1,2.0128859E1,1.0102618E2,-9.556856E1,-6.678723E-1,6.3344532E1,-3.0017235E0],"split_indices":[0,3,0,0,3,0,0,0,1,0,0,0,0,0,0,0,0,0,0,0,0,0,0],"split_type":[0,0,0,0,0,0,0,0,0,0,0,0,0,0,0,0,0,0,0,0,0,0,0],"sum_hessian":[2.8E1,2.6E1,2E0,3E0,2.3E1,1E0,1E0,1E0,2E0,3E0,2E1,1E0,1E0,1E0,2E0,1E0,1.9E1,1E0,1E0,2E0,1.7E1,1E0,1.6E1],"tree_param":{"num_deleted":"0","num_feature":"4","num_nodes":"23","size_leaf_vector":"1"}},{"base_weights":[4.056031E1,-2.45374E0,4.1416666E2,-3.0273855E1,8.135714E1,3.4875E1,1.515E2,1.1710012E0,-2.1933333E2,1.2083333E1,7.455E1,-1.13643555E2,2.9801453E1,-7.965E1,-1.9050001E1,1.3E1,-1.4375E1,-5.602222E1,-2.7030924E1,9.002832E1,-8.558138E1,2.625E0,-2.5E1,-1.1554542E1,-6.09375E-1,5.363971E1,4.1278462E0,-4.6430077E1,-3.6890626E0,-9.375E0,-1.8750001E0],"categories":[],"categories_nodes":[],"categories_segments":[],"categories_sizes":[],"default_left":[0,0,0,0,0,0,0,0,0,0,0,0,0,0,0,0,0,0,0,0,0,0,0,0,0,0,0,0,0,0,0],"id":54,"left_children":[1,3,5,7,9,-1,-1,11,13,15,-1,17,19,-1,-1,-1,21,-1,23,25,27,-1,29,-1,-1,-1,-1,-1,-1,-1,-1],"loss_changes":[4.6705562E5,6.541697E4,2.2476031E4,1.2510074E5,7.804764E4,0E0,0E0,6.58434E4,4.723672E3,5.5838545E3,0E0,2.0276781E4,1.188911E5,0E0,0E0,0E0,1.2015625E3,0E0,7.830708E2,7.201463E4,2.8518223E4,0E0,1.5625E2,0E0,0E0,0E0,0E0,0E0,0E0,0E0,0E0],"parents":[2147483647,0,0,1,1,2,2,3,3,4,4,7,7,8,8,9,9,11,11,12,12,16,16,18,18,19,19,20,20,22,22],"right_children":[2,4,6,8,10,-1,-1,12,14,16,-1,18,20,-1,-1,-1,22,-1,24,26,28,-1,30,-1,-1,-1,-1,-1,-1,-1,-1],"split_conditions":[1.8938297E0,7.368545E-1,2.1499999E0,7.5956054E-2,1.1253191E0,3.4875E1,1.515E2,-6.753744E-1,-2.7446806E-2,1.0974523E0,7.455E1,-1.0521276E0,-1.022272E-1,-7.965E1,-1.9050001E1,1.3E1,-5.397872E-1,-5.602222E1,-1.034159E0,-6.6200644E-1,-5.325044E-1,2.625E0,7.410638E-1,-1.1554542E1,-6.09375E-1,5.363971E1,4.1278462E0,-4.6430077E1,-3.6890626E0,-9.375E0,-1.8750001E0],"split_indices":[0,3,0,3,0,0,0,3,0,3,0,0,1,0,0,0,0,0,1,3,3,0,0,0,0,0,0,0,0,0,0],"split_type":[0,0,0,0,0,0,0,0,0,0,0,0,0,0,0,0,0,0,0,0,0,0,0,0,0,0,0,0,0,0,0],"sum_hessian":[2.8E1,2.6E1,2E0,2E1,6E0,1E0,1E0,1.8E1,2E0,5E0,1E0,3E0,1.5E1,1E0,1E0,2E0,3E0,1E0,2E0,1E1,5E0,1E0,2E0,1E0,1E0,4E0,6E0,2E0,3E0,1E0,1E0],"tree_param":{"num_deleted":"0","num_feature":"4","num_nodes":"31","size_leaf_vector":"1"}},{"base_weights":[3.202539E1,-4.6949506E0,3.5183334E2,-2.877446E1,6.821429E1,2.9625002E1,1.2870001E2,-2.3625617E0,-1.8645833E2,9.25E0,6.3300003E1,-6.126758E1,3.710433E1,-6.770625E1,-1.62E1,1.0400001E1,-1.2125E1,-1.23762276E2,5.64293E1,7.782627E1,-6.6899858E0,2.25E0,-2.1166666E1,-4.3144142E1,-5.179688E-1,-6.5538284E1,1.0899961E1,-7.9500003E0,-1.575E0],"categories":[],"categories_nodes":[],"categories_segments":[],"categories_sizes":[],"default_left":[0,0,0,0,0,0,0,0,0,0,0,0,0,0,0,0,0,0,0,0,0,0,0,0,0,0,0,0,0],"id":55,"left_children":[1,3,5,7,9,-1,-1,11,13,15,-1,17,19,-1,-1,-1,21,23,-1,-1,25,-1,27,-1,-1,-1,-1,-1,-1],"loss_changes":[3.422121E5,4.9364535E4,1.6225031E4,8.701882E4,5.6983055E4,0E0,0E0,4.6444453E4,3.4015703E3,3.6800205E3,0E0,1.4795142E5,1.18569945E5,0E0,0E0,0E0,8.685209E2,1.6880719E4,0E0,0E0,1.0815906E5,0E0,1.15541626E2,0E0,0E0,0E0,0E0,0E0,0E0],"parents":[2147483647,0,0,1,1,2,2,3,3,4,4,7,7,8,8,9,9,11,11,12,12,16,16,17,17,20,20,22,22],"right_children":[2,4,6,8,10,-1,-1,12,14,16,-1,18,20,-1,-1,-1,22,24,-1,-1,26,-1,28,-1,-1,-1,-1,-1,-1],"split_conditions":[1.8938297E0,7.368545E-1,2.1499999E0,7.5956054E-2,1.1253191E0,2.9625002E1,1.2870001E2,-9.2404246E-1,-2.7446806E-2,1.0974523E0,6.3300003E1,-5.951667E-1,-9.6759236E-1,-6.770625E1,-1.62E1,1.0400001E1,-5.397872E-1,-9.6759236E-1,5.64293E1,7.782627E1,-7.959574E-1,2.25E0,7.410638E-1,-4.3144142E1,-5.179688E-1,-6.5538284E1,1.0899961E1,-7.9500003E0,-1.575E0],"split_indices":[0,3,0,3,0,0,0,0,0,3,0,3,1,0,0,0,0,1,0,0,0,0,0,0,0,0,0,0,0],"split_type":[0,0,0,0,0,0,0,0,0,0,0,0,0,0,0,0,0,0,0,0,0,0,0,0,0,0,0,0,0],"sum_hessian":[2.8E1,2.6E1,2E0,2E1,6E0,1E0,1E0,1.8E1,2E0,5E0,1E0,7E0,1.1E1,1E0,1E0,2E0,3E0,6E0,1E0,1E0,1E1,1E0,2E0,5E0,1E0,1E0,9E0,1E0,1E0],"tree_param":{"num_deleted":"0","num_feature":"4","num_nodes":"29","size_leaf_vector":"1"}},{"base_weights":[2.8517847E1,-2.5919416E0,2.99E2,-2.2427734E1,5.7285713E1,2.52E1,1.09350006E2,2.4434622E-1,-1.5854167E2,7E0,5.3850002E1,3.3466938E1,-7.731576E1,-5.754375E1,-1.38E1,8.3E0,-1.025E1,-2.6070507E1,4.375453E1,-4.873418E1,-2.78E1,1.95E0,-1.8E1,3.6895185E0,-5.5708595E1,4.2140627E0,-2.9278126E1,-6.7500005E0,-1.35E0],"categories":[],"categories_nodes":[],"categories_segments":[],"categories_sizes":[],"default_left":[0,0,0,0,0,0,0,0,0,0,0,0,0,0,0,0,0,0,0,0,0,0,0,0,0,0,0,0,0],"id":56,"left_children":[1,3,5,7,9,-1,-1,11,13,15,-1,17,19,-1,-1,-1,21,23,-1,-1,25,-1,27,-1,-1,-1,-1,-1,-1],"loss_changes":[2.4479961E5,3.335325E4,1.16295E4,6.4844445E4,4.176293E4,0E0,0E0,5.1545723E4,2.4096875E3,2.4225833E3,0E0,9.747505E4,2.077607E4,0E0,0E0,0E0,6.3625E2,6.3530043E4,0E0,0E0,1.597414E4,0E0,8.1E1,0E0,0E0,0E0,0E0,0E0,0E0],"parents":[2147483647,0,0,1,1,2,2,3,3,4,4,7,7,8,8,9,9,11,11,12,12,16,16,17,17,20,20,22,22],"right_children":[2,4,6,8,10,-1,-1,12,14,16,-1,18,20,-1,-1,-1,22,24,-1,-1,26,-1,28,-1,-1,-1,-1,-1,-1],"split_conditions":[1.8938297E0,7.368545E-1,2.1499999E0,7.5956054E-2,1.1253191E0,2.52E1,1.09350006E2,-1.022272E-1,-2.7446806E-2,1.0974523E0,5.3850002E1,-7.959574E-1,4.848936E-1,-5.754375E1,-1.38E1,8.3E0,-5.397872E-1,-5.350109E-1,4.375453E1,-4.873418E1,1.0741723E0,1.95E0,7.410638E-1,3.6895185E0,-5.5708595E1,4.2140627E0,-2.9278126E1,-6.7500005E0,-1.35E0],"split_indices":[0,3,0,3,0,0,0,1,0,3,0,0,0,0,0,0,0,3,0,0,2,0,0,0,0,0,0,0,0],"split_type":[0,0,0,0,0,0,0,0,0,0,0,0,0,0,0,0,0,0,0,0,0,0,0,0,0,0,0,0,0],"sum_hessian":[2.8E1,2.6E1,2E0,2E1,6E0,1E0,1E0,1.8E1,2E0,5E0,1E0,1.3E1,5E0,1E0,1E0,2E0,3E0,9E0,4E0,1E0,4E0,1E0,2E0,8E0,1E0,3E0,1E0,1E0,1E0],"tree_param":{"num_deleted":"0","num_feature":"4","num_nodes":"29","size_leaf_vector":"1"}},{"base_weights":[2.1260506E1,-5.4239006E0,2.5433333E2,-2.2997396E1,4.807143E1,2.145E1,9.3E1,-4.1484375E0,-1.3470833E2,5.25E0,4.575E1,2.2836775E1,-6.642252E1,-4.891875E1,-1.1700001E1,6.6000004E0,-8.625E0,-4.4519775E1,9.655329E1,-1.16220055E2,-1.246875E1,1.6500001E0,-1.5166667E1,-2.8809961E1,4.7411133E1,6.873262E1,-6.8718755E-1,-4.1424026E1,-1.0875E1,1.1606251E1,-2.4890627E1,-5.7000003E0,-1.125E0],"categories":[],"categories_nodes":[],"categories_segments":[],"categories_sizes":[],"default_left":[0,0,0,0,0,0,0,0,0,0,0,0,0,0,0,0,0,0,0,0,0,0,0,0,0,0,0,0,0,0,0,0,0],"id":57,"left_children":[1,3,5,7,9,-1,-1,11,13,15,-1,17,19,-1,-1,-1,21,23,25,27,29,-1,31,-1,-1,-1,-1,-1,-1,-1,-1,-1,-1],"loss_changes":[1.8174238E5,2.6488215E4,8.368172E3,4.36595E4,3.050184E4,0E0,0E0,3.3445984E4,1.7817539E3,1.5841875E3,0E0,7.381259E4,1.4671469E4,0E0,0E0,0E0,4.530208E2,9.865201E4,9.224089E4,2.3903906E2,1.7635916E4,0E0,6.0041687E1,0E0,0E0,0E0,0E0,0E0,0E0,0E0,0E0,0E0,0E0],"parents":[2147483647,0,0,1,1,2,2,3,3,4,4,7,7,8,8,9,9,11,11,12,12,16,16,17,17,18,18,19,19,20,20,22,22],"right_children":[2,4,6,8,10,-1,-1,12,14,16,-1,18,20,-1,-1,-1,22,24,26,28,30,-1,32,-1,-1,-1,-1,-1,-1,-1,-1,-1,-1],"split_conditions":[1.8938297E0,7.368545E-1,2.1499999E0,7.5956054E-2,1.1253191E0,2.145E1,9.3E1,-1.022272E-1,-2.7446806E-2,1.0974523E0,4.575E1,-9.2404246E-1,-5.325044E-1,-4.891875E1,-1.1700001E1,6.6000004E0,-5.397872E-1,-5.951667E-1,-6.6200644E-1,4.848936E-1,1.0741723E0,1.6500001E0,7.410638E-1,-2.8809961E1,4.7411133E1,6.873262E1,-6.8718755E-1,-4.1424026E1,-1.0875E1,1.1606251E1,-2.4890627E1,-5.7000003E0,-1.125E0],"split_indices":[0,3,0,3,0,0,0,1,0,3,0,0,3,0,0,0,0,3,3,0,2,0,0,0,0,0,0,0,0,0,0,0,0],"split_type":[0,0,0,0,0,0,0,0,0,0,0,0,0,0,0,0,0,0,0,0,0,0,0,0,0,0,0,0,0,0,0,0,0],"sum_hessian":[2.8E1,2.6E1,2E0,2E1,6E0,1E0,1E0,1.8E1,2E0,5E0,1E0,1.3E1,5E0,1E0,1E0,2E0,3E0,7E0,6E0,2E0,3E0,1E0,2E0,6E0,1E0,2E0,4E0,1E0,1E0,2E0,1E0,1E0,1E0],"tree_param":{"num_deleted":"0","num_feature":"4","num_nodes":"33","size_leaf_vector":"1"}},{"base_weights":[1.9071997E1,-3.5337818E0,2.1616667E2,-1.3808838E1,5.9E1,1.8225E1,7.905E1,1.1249467E1,-3.251116E1,-7.6666665E0,3.8850002E1,-1.7711523E1,4.5128906E1,-1.07833336E2,-1.09713545E1,1.4250001E0,-4.875E0,1.532053E1,-4.725E1,-6.9375005E0,-4.15875E1,2.3295313E1,-3.6460938E1,-8.6515875E0,5.5289066E1,-2.9635939E1,-2.559375E0],"categories":[],"categories_nodes":[],"categories_segments":[],"categories_sizes":[],"default_left":[0,0,0,0,0,0,0,0,0,0,0,0,0,0,0,0,0,0,0,0,0,0,0,0,0,0,0],"id":58,"left_children":[1,3,5,7,9,-1,-1,11,13,15,-1,17,-1,19,21,-1,-1,23,-1,-1,-1,-1,25,-1,-1,-1,-1],"loss_changes":[1.2997276E5,1.816325E4,6.061547E3,1.1613298E4,1.9792832E4,0E0,0E0,4.700311E4,2.1530873E4,3.969167E2,0E0,4.858799E4,0E0,4.6192305E3,2.9938605E4,0E0,0E0,7.247154E4,0E0,0E0,0E0,0E0,1.6564553E4,0E0,0E0,0E0,0E0],"parents":[2147483647,0,0,1,1,2,2,3,3,4,4,7,7,8,8,9,9,11,11,13,13,14,14,17,17,22,22],"right_children":[2,4,6,8,10,-1,-1,12,14,16,-1,18,-1,20,22,-1,-1,24,-1,-1,-1,-1,26,-1,-1,-1,-1],"split_conditions":[1.8938297E0,1.1694033E0,2.1499999E0,-6.678723E-1,7.410638E-1,1.8225E1,7.905E1,-7.959574E-1,-2.7446806E-2,-5.397872E-1,3.8850002E1,-5.350109E-1,4.5128906E1,-5.397872E-1,-1.022272E-1,1.4250001E0,-4.875E0,-9.2404246E-1,-4.725E1,-6.9375005E0,-4.15875E1,2.3295313E1,-5.325044E-1,-8.6515875E0,5.5289066E1,-2.9635939E1,-2.559375E0],"split_indices":[0,3,0,0,0,0,0,0,0,0,0,3,0,0,1,0,0,0,0,0,0,0,3,0,0,0,0],"split_type":[0,0,0,0,0,0,0,0,0,0,0,0,0,0,0,0,0,0,0,0,0,0,0,0,0,0,0],"sum_hessian":[2.8E1,2.6E1,2E0,2.3E1,3E0,1E0,1E0,1E1,1.3E1,2E0,1E0,9E0,1E0,2E0,1.1E1,1E0,1E0,8E0,1E0,1E0,1E0,2E0,9E0,7E0,1E0,2E0,7E0],"tree_param":{"num_deleted":"0","num_feature":"4","num_nodes":"27","size_leaf_vector":"1"}},{"base_weights":[1.747673E1,-1.6546224E0,1.8383333E2,-1.4246419E1,3.6357143E1,1.5525001E1,6.7200005E1,2.3694491E-2,-2.9962502E1,5.75E0,3.3E1,1.986949E1,-4.628711E1,5.8E0,-5.875E0,-1.2459277E1,8.055312E1,-3.076465E1,-1.4525E1,1.3333334E0,-4.125E0,4.771908E0,-4.0162502E1,3.8360157E1,1.1027344E1,4.940625E0,-2.0775002E1,1.2E0,-6E-1],"categories":[],"categories_nodes":[],"categories_segments":[],"categories_sizes":[],"default_left":[0,0,0,0,0,0,0,0,0,0,0,0,0,0,0,0,0,0,0,0,0,0,0,0,0,0,0,0,0],"id":59,"left_children":[1,3,5,7,9,-1,-1,11,-1,13,-1,15,17,-1,19,21,23,-1,25,27,-1,-1,-1,-1,-1,-1,-1,-1,-1],"loss_changes":[9.260036E4,1.3441143E4,4.324039E3,2.5662887E4,1.5145482E4,0E0,0E0,1.8382123E4,0E0,1.0610209E3,0E0,2.8469215E4,9.232423E3,0E0,2.4539584E2,3.6569805E4,5.660551E3,0E0,9.621126E3,3.4666668E1,0E0,0E0,0E0,0E0,0E0,0E0,0E0,0E0,0E0],"parents":[2147483647,0,0,1,1,2,2,3,3,4,4,7,7,9,9,11,11,12,12,14,14,15,15,16,16,18,18,19,19],"right_children":[2,4,6,8,10,-1,-1,12,-1,14,-1,16,18,-1,20,22,24,-1,26,28,-1,-1,-1,-1,-1,-1,-1,-1,-1],"split_conditions":[1.8938297E0,7.368545E-1,2.1499999E0,7.5956054E-2,1.1253191E0,1.5525001E1,6.7200005E1,-1.022272E-1,-2.9962502E1,1.0974523E0,3.3E1,-7.959574E-1,4.848936E-1,5.8E0,1.0294042E0,-5.350109E-1,-6.678723E-1,-3.076465E1,1.0741723E0,-5.397872E-1,-4.125E0,4.771908E0,-4.0162502E1,3.8360157E1,1.1027344E1,4.940625E0,-2.0775002E1,1.2E0,-6E-1],"split_indices":[0,3,0,3,0,0,0,1,0,3,0,0,0,0,1,3,0,0,2,0,0,0,0,0,0,0,0,0,0],"split_type":[0,0,0,0,0,0,0,0,0,0,0,0,0,0,0,0,0,0,0,0,0,0,0,0,0,0,0,0,0],"sum_hessian":[2.8E1,2.6E1,2E0,2E1,6E0,1E0,1E0,1.8E1,2E0,5E0,1E0,1.3E1,5E0,2E0,3E0,9E0,4E0,1E0,4E0,2E0,1E0,8E0,1E0,1E0,3E0,3E0,1E0,1E0,1E0],"tree_param":{"num_deleted":"0","num_feature":"4","num_nodes":"29","size_leaf_vector":"1"}},{"base_weights":[1.4138806E1,-2.1842449E0,1.5633333E2,-5.3145264E1,6.4002686E0,1.3200001E1,5.715E1,-3.679724E1,1.0911296E1,7.71897E1,-7.388207E0,1.0003419E0,3.9097414E0,-1.9851418E1,4.411016E1,4.0881447E1,-2.1384766E1,-4.9133205E1,3.5353732E0,3.260625E1,-2.7130287E0],"categories":[],"categories_nodes":[],"categories_segments":[],"categories_sizes":[],"default_left":[0,0,0,0,0,0,0,0,0,0,0,0,0,0,0,0,0,0,0,0,0],"id":60,"left_children":[1,3,5,7,9,-1,-1,-1,11,13,15,-1,-1,-1,-1,-1,17,-1,19,-1,-1],"loss_changes":[6.7651875E4,1.2151982E4,3.132164E3,1.9149205E4,2.3996172E4,0E0,0E0,0E0,4.758911E0,4.978117E4,4.5139703E4,0E0,0E0,0E0,0E0,0E0,7.154787E4,0E0,2.4791285E4,0E0,0E0],"parents":[2147483647,0,0,1,1,2,2,3,3,4,4,8,8,9,9,10,10,16,16,18,18],"right_children":[2,4,6,8,10,-1,-1,-1,12,14,16,-1,-1,-1,-1,-1,18,-1,20,-1,-1],"split_conditions":[1.8938297E0,-6.753744E-1,2.1499999E0,-1.0521276E0,-6.730046E-1,1.3200001E1,5.715E1,-3.679724E1,-1.034159E0,-1.0521276E0,-1.0521276E0,1.0003419E0,3.9097414E0,-1.9851418E1,4.411016E1,4.0881447E1,-7.959574E-1,-4.9133205E1,-6.678723E-1,3.260625E1,-2.7130287E0],"split_indices":[0,3,0,0,3,0,0,0,1,0,0,0,0,0,0,0,0,0,0,0,0],"split_type":[0,0,0,0,0,0,0,0,0,0,0,0,0,0,0,0,0,0,0,0,0],"sum_hessian":[2.8E1,2.6E1,2E0,3E0,2.3E1,1E0,1E0,1E0,2E0,3E0,2E1,1E0,1E0,1E0,2E0,1E0,1.9E1,2E0,1.7E1,1E0,1.6E1],"tree_param":{"num_deleted":"0","num_feature":"4","num_nodes":"21","size_leaf_vector":"1"}},{"base_weights":[1.2783472E1,-1.0473814E0,1.33E2,-1.2227586E1,3.2642857E1,1.125E1,4.8600002E1,-1.1791735E0,-7.8125E1,6.4166665E0,2.8500002E1,1.46536E1,-3.792578E1,-3.0431252E1,-4.7250004E0,-3.15E0,1.19E1,-2.3458984E1,5.6117466E1,-2.5742579E1,-1.11875E1,4.5375004E0,-1.5E-1,-1.7971373E1,3.4749023E1,4.140723E1,-1.2750001E0,4.4343753E0,-1.7259377E1],"categories":[],"categories_nodes":[],"categories_segments":[],"categories_sizes":[],"default_left":[0,0,0,0,0,0,0,0,0,0,0,0,0,0,0,0,0,0,0,0,0,0,0,0,0,0,0,0,0],"id":61,"left_children":[1,3,5,7,9,-1,-1,11,13,15,-1,17,19,-1,-1,-1,21,23,25,-1,27,-1,-1,-1,-1,-1,-1,-1,-1],"loss_changes":[4.8357523E4,1.0569064E4,2.2335E3,1.5197174E4,1.0838148E4,0E0,0E0,1.1609962E4,2.764711E3,6.815083E2,0E0,2.344059E4,6.721841E3,0E0,0E0,0E0,2.0751251E2,4.755053E4,3.519807E4,0E0,6.86783E3,0E0,0E0,0E0,0E0,0E0,0E0,0E0,0E0],"parents":[2147483647,0,0,1,1,2,2,3,3,4,4,7,7,8,8,9,9,11,11,12,12,16,16,17,17,18,18,20,20],"right_children":[2,4,6,8,10,-1,-1,12,14,16,-1,18,20,-1,-1,-1,22,24,26,-1,28,-1,-1,-1,-1,-1,-1,-1,-1],"split_conditions":[1.8938297E0,7.368545E-1,2.1499999E0,7.5956054E-2,1.1253191E0,1.125E1,4.8600002E1,-1.022272E-1,-2.7446806E-2,1.0741723E0,2.8500002E1,-9.2404246E-1,4.848936E-1,-3.0431252E1,-4.7250004E0,-3.15E0,7.410638E-1,-5.951667E-1,-6.6200644E-1,-2.5742579E1,1.0741723E0,4.5375004E0,-1.5E-1,-1.7971373E1,3.4749023E1,4.140723E1,-1.2750001E0,4.4343753E0,-1.7259377E1],"split_indices":[0,3,0,3,0,0,0,1,0,2,0,0,0,0,0,0,0,3,3,0,2,0,0,0,0,0,0,0,0],"split_type":[0,0,0,0,0,0,0,0,0,0,0,0,0,0,0,0,0,0,0,0,0,0,0,0,0,0,0,0,0],"sum_hessian":[2.8E1,2.6E1,2E0,2E1,6E0,1E0,1E0,1.8E1,2E0,5E0,1E0,1.3E1,5E0,1E0,1E0,1E0,4E0,7E0,6E0,1E0,4E0,3E0,1E0,6E0,1E0,2E0,4E0,3E0,1E0],"tree_param":{"num_deleted":"0","num_feature":"4","num_nodes":"29","size_leaf_vector":"1"}},{"base_weights":[1.1420528E1,-2.890625E-1,1.13E2,-9.371652E0,2.7E1,9.6E0,4.125E1,1.4185855E-1,-6.65E1,4.6666665E0,2.4150002E1,1.4321986E1,-3.296875E1,-2.5875002E1,-4.05E0,4.2000003E0,-3.5E0,-1.4324219E1,4.5014507E1,-6.1520832E1,-3.3125E0,1.3333334E0,-2.7E0,-1.3350167E1,2.9536524E1,3.3125782E1,-9.693751E-1,-2.188125E1,-5.8031254E0,8.45625E0,-1.4671876E1,7.5E-1,-1.5E-1],"categories":[],"categories_nodes":[],"categories_segments":[],"categories_sizes":[],"default_left":[0,0,0,0,0,0,0,0,0,0,0,0,0,0,0,0,0,0,0,0,0,0,0,0,0,0,0,0,0,0,0,0,0],"id":62,"left_children":[1,3,5,7,9,-1,-1,11,13,15,-1,17,19,-1,-1,-1,21,23,25,27,29,31,-1,-1,-1,-1,-1,-1,-1,-1,-1,-1,-1],"loss_changes":[3.4526832E4,6.945129E3,1.5535E3,1.1422748E4,7.988167E3,0E0,0E0,9.392918E3,1.975875E3,5.063333E2,0E0,1.29539375E4,4.876698E3,0E0,0E0,0E0,1.1833333E2,3.1607436E4,2.2445309E4,3.3680664E1,7.1233574E3,7.6666665E0,0E0,0E0,0E0,0E0,0E0,0E0,0E0,0E0,0E0,0E0,0E0],"parents":[2147483647,0,0,1,1,2,2,3,3,4,4,7,7,8,8,9,9,11,11,12,12,16,16,17,17,18,18,19,19,20,20,21,21],"right_children":[2,4,6,8,10,-1,-1,12,14,16,-1,18,20,-1,-1,-1,22,24,26,28,30,32,-1,-1,-1,-1,-1,-1,-1,-1,-1,-1,-1],"split_conditions":[1.8938297E0,7.368545E-1,2.1499999E0,7.5956054E-2,1.1253191E0,9.6E0,4.125E1,-1.022272E-1,-2.7446806E-2,1.0974523E0,2.4150002E1,-9.2404246E-1,-5.325044E-1,-2.5875002E1,-4.05E0,4.2000003E0,1.0294042E0,-5.951667E-1,-6.6200644E-1,4.848936E-1,1.0741723E0,-5.397872E-1,-2.7E0,-1.3350167E1,2.9536524E1,3.3125782E1,-9.693751E-1,-2.188125E1,-5.8031254E0,8.45625E0,-1.4671876E1,7.5E-1,-1.5E-1],"split_indices":[0,3,0,3,0,0,0,1,0,3,0,0,3,0,0,0,1,3,3,0,2,0,0,0,0,0,0,0,0,0,0,0,0],"split_type":[0,0,0,0,0,0,0,0,0,0,0,0,0,0,0,0,0,0,0,0,0,0,0,0,0,0,0,0,0,0,0,0,0],"sum_hessian":[2.8E1,2.6E1,2E0,2E1,6E0,1E0,1E0,1.8E1,2E0,5E0,1E0,1.3E1,5E0,1E0,1E0,2E0,3E0,7E0,6E0,2E0,3E0,2E0,1E0,6E0,1E0,2E0,4E0,1E0,1E0,2E0,1E0,1E0,1E0],"tree_param":{"num_deleted":"0","num_feature":"4","num_nodes":"33","size_leaf_vector":"1"}},{"base_weights":[1.0128906E1,1.9401042E-1,9.6166664E1,-7.2981772E0,2.2642857E1,8.175E0,3.5100002E1,8.612253E-1,-5.6541668E1,3.5833333E0,2.0550001E1,1.3480748E1,-2.8727865E1,-2.1993752E1,-3.45E0,3.4E0,-3.125E0,-1.7164713E0,6.977604E1,-5.2289062E1,-3.875E0,1E0,-2.325E0,6.0294147E0,-2.2157814E1,2.8052345E1,3.3468752E0,-1.859883E1,-4.93125E0,6.7625003E0,-1.2468751E1,6E-1,-1.5E-1],"categories":[],"categories_nodes":[],"categories_segments":[],"categories_sizes":[],"default_left":[0,0,0,0,0,0,0,0,0,0,0,0,0,0,0,0,0,0,0,0,0,0,0,0,0,0,0,0,0,0,0,0,0],"id":63,"left_children":[1,3,5,7,9,-1,-1,11,13,15,-1,17,19,-1,-1,-1,21,23,25,27,29,31,-1,-1,-1,-1,-1,-1,-1,-1,-1,-1,-1],"loss_changes":[2.4769852E4,4.7064077E3,1.119041E3,8.486441E3,5.8726494E3,0E0,0E0,7.481877E3,1.4230654E3,3.473542E2,0E0,1.2097217E4,3.3107598E3,0E0,0E0,0E0,8.40625E1,2.0369582E4,3.1302568E3,2.4975586E1,4.9192007E3,5.5E0,0E0,0E0,0E0,0E0,0E0,0E0,0E0,0E0,0E0,0E0,0E0],"parents":[2147483647,0,0,1,1,2,2,3,3,4,4,7,7,8,8,9,9,11,11,12,12,16,16,17,17,18,18,19,19,20,20,21,21],"right_children":[2,4,6,8,10,-1,-1,12,14,16,-1,18,20,-1,-1,-1,22,24,26,28,30,32,-1,-1,-1,-1,-1,-1,-1,-1,-1,-1,-1],"split_conditions":[1.8938297E0,7.368545E-1,2.1499999E0,7.5956054E-2,1.1253191E0,8.175E0,3.5100002E1,-1.022272E-1,-2.7446806E-2,1.0974523E0,2.0550001E1,-4.94907E-1,-5.325044E-1,-2.1993752E1,-3.45E0,3.4E0,1.0294042E0,-5.350109E-1,-6.678723E-1,4.848936E-1,1.0741723E0,-5.397872E-1,-2.325E0,6.0294147E0,-2.2157814E1,2.8052345E1,3.3468752E0,-1.859883E1,-4.93125E0,6.7625003E0,-1.2468751E1,6E-1,-1.5E-1],"split_indices":[0,3,0,3,0,0,0,1,0,3,0,3,3,0,0,0,1,3,0,0,2,0,0,0,0,0,0,0,0,0,0,0,0],"split_type":[0,0,0,0,0,0,0,0,0,0,0,0,0,0,0,0,0,0,0,0,0,0,0,0,0,0,0,0,0,0,0,0,0],"sum_hessian":[2.8E1,2.6E1,2E0,2E1,6E0,1E0,1E0,1.8E1,2E0,5E0,1E0,1.3E1,5E0,1E0,1E0,2E0,3E0,1.1E1,2E0,2E0,3E0,2E0,1E0,9E0,2E0,1E0,1E0,1E0,1E0,2E0,1E0,1E0,1E0],"tree_param":{"num_deleted":"0","num_feature":"4","num_nodes":"33","size_leaf_vector":"1"}},{"base_weights":[7.979189E0,-5.2235246E-1,8.1833336E1,-1.3079737E1,2.8113356E0,6.9750004E0,2.985E1,3.213265E1,-5.7000556E0,-2.7483839E1,7.52043E1,2.4201563E1,-1.4052246E1,7.840918E0,2.9761232E1,-3.4336132E1,3.4620225E0,2.3845314E1,-1.7056297E0],"categories":[],"categories_nodes":[],"categories_segments":[],"categories_sizes":[],"default_left":[0,0,0,0,0,0,0,0,0,0,0,0,0,0,0,0,0,0,0],"id":64,"left_children":[1,3,5,-1,7,-1,-1,9,11,-1,13,-1,15,-1,-1,-1,17,-1,-1],"loss_changes":[1.8251096E4,3.9998936E3,7.91541E2,0E0,6.6718525E3,0E0,0E0,3.88692E4,1.6282911E4,0E0,3.2952637E3,0E0,3.556543E4,0E0,0E0,0E0,1.2969301E4,0E0,0E0],"parents":[2147483647,0,0,1,1,2,2,4,4,7,7,8,8,10,10,12,12,16,16],"right_children":[2,4,6,-1,8,-1,-1,10,12,-1,14,-1,16,-1,-1,-1,18,-1,-1],"split_conditions":[1.8938297E0,-1.1007255E0,2.1499999E0,-1.3079737E1,-6.730046E-1,6.9750004E0,2.985E1,-1.0521276E0,-1.0521276E0,-2.7483839E1,-6.753744E-1,2.4201563E1,-7.959574E-1,7.840918E0,2.9761232E1,-3.4336132E1,-6.678723E-1,2.3845314E1,-1.7056297E0],"split_indices":[0,1,0,0,3,0,0,0,0,0,3,0,0,0,0,0,0,0,0],"split_type":[0,0,0,0,0,0,0,0,0,0,0,0,0,0,0,0,0,0,0],"sum_hessian":[2.8E1,2.6E1,2E0,1E0,2.5E1,1E0,1E0,5E0,2E1,1E0,4E0,1E0,1.9E1,2E0,2E0,2E0,1.7E1,1E0,1.6E1],"tree_param":{"num_deleted":"0","num_feature":"4","num_nodes":"19","size_leaf_vector":"1"}},{"base_weights":[7.1293607E0,-6.476056E-2,6.95E1,-6.845168E0,2.0285715E1,5.925E0,2.535E1,-1.512387E-1,-4.6958332E1,4E0,1.77E1,9.888497E0,-2.3552084E1,-1.8431252E1,-2.7E0,-1.725E0,7.1E0,-1.262262E1,3.4202847E1,-4.33125E1,-2.84375E0,3E0,1.8333334E0,-1.0205211E1,2.0571095E1,2.2488869E1,8.7187505E-1,-1.5553125E1,-3.9375002E0,5.7562504E0,-1.0340626E1,7.5E-1,7.5E-2],"categories":[],"categories_nodes":[],"categories_segments":[],"categories_sizes":[],"default_left":[0,0,0,0,0,0,0,0,0,0,0,0,0,0,0,0,0,0,0,0,0,0,0,0,0,0,0,0,0,0,0,0,0],"id":65,"left_children":[1,3,5,7,9,-1,-1,11,13,15,-1,17,19,-1,-1,-1,21,23,25,27,29,-1,31,-1,-1,-1,-1,-1,-1,-1,-1,-1,-1],"loss_changes":[1.3016857E4,3.8644412E3,5.69875E2,5.631707E3,4.1774287E3,0E0,0E0,4.6967227E3,1.0958774E3,2.2217499E2,0E0,8.094534E3,2.3320618E3,0E0,0E0,0E0,5.803334E1,1.62294E4,8.711692E3,9.216211E1,3.4483223E3,0E0,2.541667E0,0E0,0E0,0E0,0E0,0E0,0E0,0E0,0E0,0E0,0E0],"parents":[2147483647,0,0,1,1,2,2,3,3,4,4,7,7,8,8,9,9,11,11,12,12,16,16,17,17,18,18,19,19,20,20,22,22],"right_children":[2,4,6,8,10,-1,-1,12,14,16,-1,18,20,-1,-1,-1,22,24,26,28,30,-1,32,-1,-1,-1,-1,-1,-1,-1,-1,-1,-1],"split_conditions":[1.8938297E0,7.368545E-1,2.1499999E0,7.5956054E-2,1.1253191E0,5.925E0,2.535E1,-1.022272E-1,-2.7446806E-2,1.0741723E0,1.77E1,-9.2404246E-1,-5.325044E-1,-1.8431252E1,-2.7E0,-1.725E0,1.0974523E0,-5.951667E-1,-6.6200644E-1,4.848936E-1,1.0741723E0,3E0,-5.397872E-1,-1.0205211E1,2.0571095E1,2.2488869E1,8.7187505E-1,-1.5553125E1,-3.9375002E0,5.7562504E0,-1.0340626E1,7.5E-1,7.5E-2],"split_indices":[0,3,0,3,0,0,0,1,0,2,0,0,3,0,0,0,3,3,3,0,2,0,0,0,0,0,0,0,0,0,0,0,0],"split_type":[0,0,0,0,0,0,0,0,0,0,0,0,0,0,0,0,0,0,0,0,0,0,0,0,0,0,0,0,0,0,0,0,0],"sum_hessian":[2.8E1,2.6E1,2E0,2E1,6E0,1E0,1E0,1.8E1,2E0,5E0,1E0,1.3E1,5E0,1E0,1E0,1E0,4E0,7E0,6E0,2E0,3E0,2E0,2E0,6E0,1E0,2E0,4E0,1E0,1E0,2E0,1E0,1E0,1E0],"tree_param":{"num_deleted":"0","num_feature":"4","num_nodes":"33","size_leaf_vector":"1"}},{"base_weights":[6.3314085E0,2.263274E-1,5.9166668E1,-5.351865E0,1.6928572E1,5.025E0,2.16E1,4.005705E-1,-4E1,3.0833333E0,1.5000001E1,9.329904E0,-2.0501303E1,-1.5675E1,-2.325E0,-1.5E0,5.7E0,-1.9484457E0,5.1333332E1,-1.3219922E1,-6.975E0,2.4E0,1.5E0,5.542145E0,-1.0270313E1,2.01375E1,2.9625E0,1.7812501E0,-8.793751E0,6E-1,7.5E-2],"categories":[],"categories_nodes":[],"categories_segments":[],"categories_sizes":[],"default_left":[0,0,0,0,0,0,0,0,0,0,0,0,0,0,0,0,0,0,0,0,0,0,0,0,0,0,0,0,0,0,0],"id":66,"left_children":[1,3,5,7,9,-1,-1,11,13,15,-1,17,19,-1,-1,-1,21,23,25,-1,27,-1,29,-1,-1,-1,-1,-1,-1,-1,-1],"loss_changes":[9.34095E3,2.6061443E3,4.27042E2,4.201557E3,3.0510059E3,0E0,0E0,3.7374312E3,7.8025E2,1.5540833E2,0E0,6.7322314E3,1.6051289E3,0E0,0E0,0E0,3.6300003E1,8.544659E3,1.301229E3,0E0,1.6162078E3,0E0,1.375E0,0E0,0E0,0E0,0E0,0E0,0E0,0E0,0E0],"parents":[2147483647,0,0,1,1,2,2,3,3,4,4,7,7,8,8,9,9,11,11,12,12,16,16,17,17,18,18,20,20,22,22],"right_children":[2,4,6,8,10,-1,-1,12,14,16,-1,18,20,-1,-1,-1,22,24,26,-1,28,-1,30,-1,-1,-1,-1,-1,-1,-1,-1],"split_conditions":[1.8938297E0,7.368545E-1,2.1499999E0,7.5956054E-2,1.1253191E0,5.025E0,2.16E1,-1.022272E-1,-2.7446806E-2,1.0741723E0,1.5000001E1,-4.94907E-1,4.848936E-1,-1.5675E1,-2.325E0,-1.5E0,1.0974523E0,-6.6200644E-1,-6.678723E-1,-1.3219922E1,1.0741723E0,2.4E0,-5.397872E-1,5.542145E0,-1.0270313E1,2.01375E1,2.9625E0,1.7812501E0,-8.793751E0,6E-1,7.5E-2],"split_indices":[0,3,0,3,0,0,0,1,0,2,0,3,0,0,0,0,3,3,0,0,2,0,0,0,0,0,0,0,0,0,0],"split_type":[0,0,0,0,0,0,0,0,0,0,0,0,0,0,0,0,0,0,0,0,0,0,0,0,0,0,0,0,0,0,0],"sum_hessian":[2.8E1,2.6E1,2E0,2E1,6E0,1E0,1E0,1.8E1,2E0,5E0,1E0,1.3E1,5E0,1E0,1E0,1E0,4E0,1.1E1,2E0,1E0,4E0,2E0,2E0,7E0,4E0,1E0,1E0,3E0,1E0,1E0,1E0],"tree_param":{"num_deleted":"0","num_feature":"4","num_nodes":"31","size_leaf_vector":"1"}},{"base_weights":[5.22732E0,4.0455006E-2,5.0166668E1,-1.04182625E1,2.71336E0,4.275E0,1.8300001E1,2.2615967E1,-3.1023066E0,-2.2661793E1,5.735488E1,1.9025978E1,-9.599414E0,7.2053714E0,2.1472073E1,-2.4481642E1,2.9348958E0,1.7116407E1,-1.0814339E0],"categories":[],"categories_nodes":[],"categories_segments":[],"categories_sizes":[],"default_left":[0,0,0,0,0,0,0,0,0,0,0,0,0,0,0,0,0,0,0],"id":67,"left_children":[1,3,5,-1,7,-1,-1,9,11,-1,13,-1,15,-1,-1,-1,17,-1,-1],"loss_changes":[6.757706E3,2.6033801E3,2.980415E2,0E0,3.0795815E3,0E0,0E0,2.4791395E4,9.685037E3,0E0,6.5099414E2,0E0,1.8290428E4,0E0,0E0,0E0,6.576335E3,0E0,0E0],"parents":[2147483647,0,0,1,1,2,2,4,4,7,7,8,8,10,10,12,12,16,16],"right_children":[2,4,6,-1,8,-1,-1,10,12,-1,14,-1,16,-1,-1,-1,18,-1,-1],"split_conditions":[1.8938297E0,-1.1007255E0,2.1499999E0,-1.04182625E1,-6.730046E-1,4.275E0,1.8300001E1,-1.0521276E0,-1.0521276E0,-2.2661793E1,-6.753744E-1,1.9025978E1,-7.959574E-1,7.2053714E0,2.1472073E1,-2.4481642E1,-6.678723E-1,1.7116407E1,-1.0814339E0],"split_indices":[0,1,0,0,3,0,0,0,0,0,3,0,0,0,0,0,0,0,0],"split_type":[0,0,0,0,0,0,0,0,0,0,0,0,0,0,0,0,0,0,0],"sum_hessian":[2.8E1,2.6E1,2E0,1E0,2.5E1,1E0,1E0,5E0,2E1,1E0,4E0,1E0,1.9E1,2E0,2E0,2E0,1.7E1,1E0,1.6E1],"tree_param":{"num_deleted":"0","num_feature":"4","num_nodes":"19","size_leaf_vector":"1"}},{"base_weights":[4.633974E0,-3.4143066E0,2.61875E1,1.2317626E0,-3.325E1,3.25E0,1.9E1,-9.805224E0,1.1153409E1,-1.31625E1,-1.8000001E0,-1.125E0,5.4E0,-1.874541E1,1.1175232E1,1.6171875E1,1.4875E0,1.9125E0,2.2500001E-1,4.588389E1,-3.5004395E1,-1.2874219E1,1.1189236E1,5.764307E0,1.7177637E1,-1.6503223E1,-2.9996095E0,1.455E1,1.388672E-1],"categories":[],"categories_nodes":[],"categories_segments":[],"categories_sizes":[],"default_left":[0,0,0,0,0,0,0,0,0,0,0,0,0,0,0,0,0,0,0,0,0,0,0,0,0,0,0,0,0],"id":68,"left_children":[1,3,5,7,9,11,-1,13,15,-1,-1,-1,17,-1,19,-1,21,-1,-1,23,25,-1,27,-1,-1,-1,-1,-1,-1],"loss_changes":[5.1200083E3,3.0905674E3,6.610427E3,2.2994634E3,6.0534375E2,1.1055E2,0E0,1.1750676E4,4.4655103E3,0E0,0E0,0E0,1.7887497E1,0E0,